first -0.14168 0.41108 -0.31227 0.16633 0.26124 0.45708 -1.2001 0.014923 -0.22779 -0.16937 0.34633 -0.12419 -0.65711 0.29226 0.62407 -0.57916 -0.33947 -0.22046 -1.4832 0.28958 0.081396 -0.21696 0.0056613 -0.054199 0.098504 -1.5874 -0.22867 -0.62957 -0.39542 -0.080841 3.5949 -0.16872 -0.39024 0.026912 0.52646 -0.022844 0.63289 0.62702 -0.22171 -0.45045 -0.14998 -0.27723 -0.46658 -0.44268 -0.43691 0.38455 0.1369 -0.25424 0.017821 -0.1489
year -0.098793 0.26983 0.35304 -0.10727 -0.015183 0.053398 -1.0824 -0.53005 0.0095416 0.070428 -0.08925 -0.62666 -0.52662 -0.56571 1.8044 0.01686 -0.44871 -0.04146 -1.1136 0.17488 0.49561 -0.38238 0.30185 -0.70675 -0.35891 -1.5164 -0.024403 -0.54107 -0.36163 0.52803 3.6553 0.71214 -0.16995 0.36368 0.3399 -0.48186 0.10936 0.61428 0.15697 -0.70716 -1.2359 -0.014258 0.095588 -0.30634 -0.49741 -0.049394 -0.16697 0.11972 -0.37511 0.098348
people 0.95281 -0.20608 0.55618 -0.46323 0.73354 0.029137 -0.19367 -0.090066 -0.22958 -0.19058 -0.34857 -1.0231 0.743 -0.5489 0.88484 -0.14051 0.0040139 0.58448 0.10767 -0.44657 -0.43205 0.9868 0.78288 0.51513 0.85788 -1.7713 -0.88259 -0.59728 0.084934 -0.48112 3.9678 0.8893 -0.27064 -0.44094 -0.26213 0.085597 0.022099 -0.58376 0.10908 0.77973 -0.95447 0.40482 0.8941 0.65251 0.39858 0.20884 -1.3281 -0.10882 -0.22822 -0.46303
government 0.38797 -1.0825 0.45025 -0.23341 0.086307 -0.25721 -0.18281 -0.10037 -0.50099 -0.58361 -0.052635 -0.14224 0.0090217 -0.38308 0.18503 0.42444 0.10611 -0.1487 1.0801 0.065757 0.64552 0.1908 -0.14561 -0.87237 -0.35568 -2.435 0.28428 -0.33436 -0.56139 0.91404 4.0129 0.072234 -1.2478 -0.36592 -0.50236 0.011731 -0.27409 -0.50842 -0.2584 -0.096172 -0.67109 0.40226 0.27912 -0.37317 -0.45049 -0.30662 -1.6426 1.1936 0.65343 -0.76293
world -0.41486 0.71848 -0.3045 0.87445 0.22441 -0.56488 -0.37566 -0.44801 0.61347 -0.11359 0.74556 -0.10598 -1.1882 0.50974 1.3511 0.069851 0.73314 0.26773 -1.1787 -0.148 0.039853 0.033107 -0.27406 0.25125 0.41507 -1.6188 -0.81778 -0.73892 -0.28997 0.57277 3.4719 0.73817 -0.044495 -0.15119 -0.93503 -0.13152 -0.28562 0.76327 -0.83332 -0.6793 -0.39099 -0.64466 1.0044 -0.2051 0.46799 0.99314 -0.16221 -0.46022 -0.37639 -0.67542
million 1.1414 0.045188 1.8586 -0.050447 0.39759 0.31558 -0.66984 -1.6864 0.151 0.69105 -0.87842 -0.77406 0.67346 -1.6115 1.8154 -0.48631 0.09541 0.56202 -1.2105 0.60549 0.66933 -0.3355 0.30825 -1.2069 -0.58988 -0.8496 0.18481 -0.99578 -0.35671 -0.40894 3.6743 0.79897 0.31498 1.3646 0.0036529 -0.51161 0.24875 -0.21306 0.58295 -0.70832 -0.33408 0.071599 1.4238 0.21819 -1.1946 0.38572 -1.3817 0.35649 -0.46031 -0.13773
university -1.1082 1.2916 -0.78751 -0.45955 -0.40788 -0.53387 -0.91468 -0.48577 -0.31858 -0.33494 0.50093 -0.50392 0.029449 -1.1748 -0.47245 0.27201 -0.11093 1.0152 -1.0427 1.4929 0.70221 0.72141 -0.10898 -0.0019169 -0.076224 -2.5398 0.12008 -0.86093 -2.122 -0.90913 2.6149 -0.049744 -0.096555 -2.2488 -0.060325 0.0083282 -0.10552 1.2435 1.7389 0.66512 -0.11836 -0.061496 -0.2916 0.37698 -0.097014 0.48428 0.3657 0.26268 -0.54315 0.035944
peace 0.57799 0.99986 -0.53279 -0.50667 0.78591 -0.12575 -0.22159 0.3003 -0.068389 -0.15202 -0.23185 -0.30412 -1.2577 0.013074 -0.01122 0.37426 1.3629 -0.64067 1.1377 0.3574 0.13101 1.2354 -0.18961 -0.76785 0.43404 -1.0692 0.13794 -0.29264 0.24017 0.48798 3.3225 0.11328 -2.4298 -0.26524 -0.41547 -0.63322 -0.2971 -0.74152 -0.78166 0.21767 -0.97039 -1.0924 -0.37907 -1.4855 -0.080289 0.31801 -0.38521 0.74582 -0.95574 -0.92374
music -0.92448 0.59807 -0.995 -0.045298 -0.38836 0.032817 -1.1416 -0.30202 -0.33753 2.0498 0.72614 0.25759 0.062278 0.60505 0.19414 -0.33841 0.0098585 0.28398 -0.025021 -0.53623 1.2342 1.0731 -0.087618 0.99114 0.49666 -0.46601 -1.7859 -0.50884 -0.67744 -0.91626 3.6685 -0.58218 0.72491 -0.47676 -0.35207 0.041236 0.27288 -0.205 -0.1238 0.10142 0.59449 0.27638 -0.92749 -0.63906 -0.13326 0.50902 0.15386 -0.86544 -1.3564 0.28513
human 0.61854 0.11915 -0.46786 0.31368 1.0334 0.95964 0.87803 -1.0346 1.6322 0.29347 0.80844 -0.058903 0.021251 0.40986 0.54443 -0.33311 0.53712 -0.35823 0.29374 0.090151 -0.92049 0.69386 0.39098 -0.64392 0.77831 -1.7215 -0.48393 -0.50327 -0.22508 0.099192 3.2095 -0.31554 -0.71754 -1.6752 -1.3537 0.15195 0.054557 -0.1633 -0.027993 0.3917 -0.55007 -0.079205 0.63389 0.51446 0.70124 0.27638 -0.53445 0.064808 -0.21974 -0.52048
street 0.10499 0.039576 0.25295 -0.99776 0.47193 -1.0612 -0.97502 -0.31134 0.16424 -0.22771 -1.5832 -0.5204 -1.0451 -0.46424 -0.75864 -0.40436 -0.094728 -0.57213 -0.75214 -0.64862 1.3734 -0.20296 -0.98713 0.63052 -0.40843 -1.4155 -0.27149 0.63777 0.071901 -0.29919 2.7974 -0.22549 1.23 -0.27957 -0.13617 -0.65338 -0.020633 -0.63935 0.12992 -0.06471 -0.4136 0.01503 -0.46495 -0.36311 0.35067 0.5343 -0.0094085 -1.859 0.67313 -0.0025878
research 0.71258 0.64492 0.053186 0.30578 -0.058139 0.37774 -0.9848 -1.4113 1.2767 -0.013141 0.55534 0.23268 -0.013911 -0.0090835 -0.60868 0.11358 0.45878 0.42078 -0.52664 0.54239 0.9867 0.26386 0.22037 -0.82848 0.24685 -1.288 -0.36937 -1.0895 -1.447 0.043814 3.1056 -0.60116 0.19298 -1.9592 -0.55103 -0.47018 -0.70315 0.95543 1.3444 0.15053 -0.048638 -0.85941 0.42482 0.45963 0.95505 -0.19284 0.52146 1.1693 -0.17361 0.89113
football -1.8209 0.70094 -1.1403 0.34363 -0.42266 -0.92479 -1.3942 0.28512 -0.78416 -0.52579 0.89627 0.35899 -0.80087 -0.34636 1.0854 -0.087046 0.63411 1.1429 -1.6264 0.41326 -1.1283 -0.16645 0.17424 0.99585 -0.81838 -1.7724 0.078281 0.13382 -0.59779 -0.45068 2.5474 1.0693 -0.27017 -0.75646 0.24757 1.0261 0.11329 0.17668 -0.23257 -1.1561 -0.10665 -0.25377 -0.65102 0.32393 -0.58262 0.88137 -0.13465 0.96903 -0.076259 -0.59909
students -0.55206 0.79996 0.29169 -1.683 0.19747 -0.33755 -0.3999 -0.38887 -0.59127 -0.10607 -0.25685 -1.01 0.7868 -0.74343 0.14332 -0.55408 -0.29019 0.89346 0.19982 -0.32834 0.53301 1.1212 0.20935 0.81503 0.25224 -1.2498 0.30645 -1.3664 -1.3637 -0.78807 3.5129 1.0378 -0.35115 -1.4391 0.61083 0.44909 0.30551 0.076228 0.45883 0.31154 -0.59278 -0.4668 0.34924 0.93465 0.45031 -0.39806 0.3814 0.071797 -0.43046 -0.031371
food 0.47222 -0.44545 -0.51833 -0.26818 0.44427 -0.25108 -0.99282 -0.90198 1.8729 0.039081 0.14284 0.074878 1.0543 -0.3203 1.0722 0.44323 0.0099484 0.15754 0.51399 -0.77668 0.924 0.010958 0.58815 0.23078 -0.34281 -0.88444 -0.31492 0.12661 1.1445 0.60775 3.4344 0.63561 -0.13832 0.28045 -0.16181 0.77541 -0.49888 0.4602 0.91799 0.29007 0.06884 0.59978 0.53967 -0.061752 1.2975 0.92323 -0.80945 0.34932 0.33934 0.25499
car 0.47685 -0.084552 1.4641 0.047017 0.14686 0.5082 -1.2228 -0.22607 0.19306 -0.29756 0.20599 -0.71284 -1.6288 0.17096 0.74797 -0.061943 -0.65766 1.3786 -0.68043 -1.7551 0.58319 0.25157 -1.2114 0.81343 0.094825 -1.6819 -0.64498 0.6322 1.1211 0.16112 2.5379 0.24852 -0.26816 0.32818 1.2916 0.23548 0.61465 -0.1344 -0.13237 0.27398 -0.11821 0.1354 0.074306 -0.61951 0.45472 -0.30318 -0.21883 -0.56054 1.1177 -0.36595
race -0.65295 0.41716 -0.18996 1.1856 -0.058602 0.84315 -0.75376 0.026361 -0.1327 -0.8641 -0.34734 -1.363 -1.049 -0.33016 1.0228 -0.372 0.32135 0.21091 -1.7135 -1.5031 -0.5127 -0.14772 -0.21789 0.62638 1.001 -1.5693 -0.23567 -0.238 -0.029894 0.62624 2.3002 0.68448 -1.3347 -0.11154 0.14985 -1.2623 -0.24938 1.0384 -0.9126 -0.69074 -0.57282 -0.54585 -0.22937 0.62965 -0.34503 -0.41869 0.49086 -0.67952 0.9101 -0.1719
nearly 0.70695 -0.13158 1.1623 -0.49631 0.58142 0.35165 -0.64238 -0.20644 0.18146 0.14987 -0.38848 -1.576 0.14147 -0.1561 1.3611 -0.60137 -0.32335 0.32128 -0.93332 -0.23782 -0.10737 0.12144 0.11351 -0.55458 -0.22242 -1.1551 0.22132 0.083722 0.12981 0.32287 3.5748 -0.046077 0.45374 0.41368 -0.2703 -0.063579 -0.15053 0.301 0.17456 -0.43638 -0.62643 0.11724 0.55345 0.50303 -0.82706 -0.15984 -0.45192 -0.13641 -1.0943 -0.70736
road 0.10042 1.06 0.24829 0.014362 -0.783 -0.12697 -0.85894 -0.16042 0.59427 -1.069 -1.2221 -0.61181 -1.1446 -1.3356 -0.93968 0.37353 0.75405 0.37777 -0.52882 0.024955 0.31032 0.083344 -0.59232 0.83623 0.65468 -1.1154 0.47597 0.77803 0.84934 -0.82595 2.8725 -0.1032 0.25725 0.074587 0.95345 -0.027788 0.60115 -0.15205 -0.50584 0.58003 -0.58731 -0.72368 -0.057061 -0.28228 -0.42823 0.21001 0.22496 -1.2876 0.87487 -0.6231
outside 0.67751 0.22249 -0.032198 -0.16374 0.57229 -0.93367 -0.82656 0.31582 0.02441 -0.51036 -0.26261 -1.3476 -0.10487 -0.0037803 -0.067118 0.60251 0.25636 0.25521 -0.45102 -0.54298 0.66872 0.79584 -0.41457 0.71251 -0.39771 -1.7351 0.15267 0.78654 0.15484 -0.64701 3.0757 0.11801 -0.19143 -0.75106 -0.11382 0.17232 0.16219 -0.10994 0.24001 0.67559 -0.087003 0.32909 0.1901 0.26918 0.30016 -0.14438 -0.41624 -0.70384 -0.13109 -0.75527
century 0.42373 0.07564 -1.1661 -0.94059 0.47112 -0.34774 -0.91326 -0.52053 -0.42224 -0.012656 -0.12034 0.16164 -0.29226 -0.22875 0.029715 -0.20729 0.24263 -0.74336 -0.67894 0.50366 0.13175 -0.66325 -0.93767 -0.036856 0.5709 -1.1115 -1.631 -0.72303 -0.12268 0.82252 3.0946 -1.228 0.64149 0.093082 0.22482 0.1489 -0.24321 0.94718 -0.59528 0.60007 -0.28403 -0.091914 0.22169 0.2975 -0.31769 1.3584 -0.13378 -1.1394 -0.31153 -1.3144
album -0.79431 0.59299 -0.31143 -0.35942 -0.24215 0.55007 -1.3134 0.034111 0.34875 1.7234 0.70797 0.61513 -0.46275 0.73107 0.93694 -0.67542 0.32331 -0.61677 -0.34743 -0.24339 -0.070865 0.38931 1.0161 0.21721 0.43778 0.14218 -2.1044 0.10197 0.13828 -0.759 3.1202 -1.3181 0.30527 0.52625 -0.057076 -0.26051 1.3767 -1.0968 -0.55682 -1.2273 0.0099695 -0.79864 -1.1103 -1.7776 -0.17676 -0.096161 0.048674 -1.184 -0.82708 0.3329
senior -0.85691 0.73243 0.15821 0.39441 0.92551 -0.54947 -0.70786 0.18366 -0.45851 -1.5315 -0.1599 0.12623 -0.97626 0.047479 -0.09726 0.094083 0.33633 0.48962 -0.13007 0.28393 0.29516 0.58328 0.25367 0.16401 -0.85002 -1.8843 0.33144 -0.85419 -1.7226 0.40673 2.5342 -0.10991 0.0037014 -0.69877 0.7746 -0.014849 -0.39898 -0.20122 0.3418 -0.17201 -0.47878 0.33775 -0.20541 -0.15614 0.74306 -0.54136 -0.57573 1.1167 -0.1346 0.65562
minutes 0.16963 2.0912e-05 0.5111 -0.50768 0.69489 -0.11762 -0.32955 0.53581 -0.3478 0.29399 -0.44349 -0.72387 -0.58002 0.59233 0.81141 -0.83223 -0.14136 -0.89118 -1.9858 -0.42562 0.033684 0.8211 1.4019 0.067574 0.3949 -0.61005 1.4228 0.6438 0.44596 -0.68921 3.2237 0.90785 -0.36662 0.4789 0.32956 0.33298 0.84169 1.3068 0.82378 -0.11558 0.73223 0.68738 0.095993 -0.53454 -0.74187 0.84298 0.85829 -0.22049 0.28477 -0.21522
together 0.52691 0.062192 0.013797 -0.24144 0.94915 0.90511 -0.67528 -0.5075 -1.0105 -0.24563 0.18366 -0.071627 -0.56162 0.41912 0.39582 0.32691 0.46197 0.085586 0.27197 -0.56735 0.64228 0.71947 0.9811 0.072394 0.34421 -0.44457 -0.14271 -0.36439 0.0033597 -0.87613 3.4852 0.7384 -0.43386 -0.27189 -0.087298 0.1076 -0.45525 0.6328 0.14832 0.074073 -0.43526 -0.29084 0.087274 -0.39251 -0.17586 0.089582 -0.13581 -0.75564 -0.5576 -0.42156
results 0.087739 0.1205 -0.055462 1.2501 -0.39726 -0.20533 0.1694 0.54744 0.22219 0.17485 0.50907 -1.1685 -0.74995 -0.49909 0.97557 0.60391 -0.47027 -1.0152 -0.56823 -1.1348 0.23463 -0.26927 0.85125 0.004758 0.032431 -0.8334 -1.418 -0.090377 -0.87929 0.53086 3.1828 0.40265 -0.40857 -1.0655 0.21221 -0.92504 0.548 1.1508 0.036407 -0.94276 -0.20125 -0.84362 -0.11281 0.23204 0.22245 0.20522 0.30897 1.1533 0.98419 -0.17333
hard -0.53079 -0.21965 0.53268 -0.23144 0.074339 -0.065505 -0.10421 0.30725 -0.49644 0.65372 -0.38484 -0.16258 -0.6452 0.36771 0.089541 0.33131 0.72552 -0.05129 0.36862 -0.89896 -0.53229 0.33536 0.19408 0.18393 0.5277 -1.8321 -0.53567 0.11963 0.87309 -0.40913 3.5748 0.168 -0.26982 0.1895 -0.15528 0.23055 -0.30747 0.44402 0.14332 -0.56575 -0.13017 0.2943 -0.052564 0.40329 0.45792 0.3516 -0.019691 -0.20061 -0.24725 -0.030552
land 0.74371 -0.016254 0.083695 0.28836 0.48225 0.096555 -1.0479 -0.55865 0.045135 -0.92211 -0.090762 0.20471 0.87533 -1.2334 -0.075768 0.84262 1.2116 0.14834 -0.67486 0.11422 0.31473 -0.23918 -0.53633 -0.56533 0.28055 -0.98942 -0.029922 -0.15409 1.314 0.25322 3.3399 -0.83648 -0.55566 0.12633 -0.066171 0.094796 -0.68131 -0.38038 -0.12023 0.23884 -0.46936 -0.24094 0.55011 0.38747 -0.98365 -0.58501 -0.83599 -0.84043 0.21112 -0.74239
action 0.24196 -0.74387 -0.51436 -0.089699 -0.26825 0.45664 0.72555 -0.21819 0.042826 0.18943 -0.32057 0.057118 -0.59674 0.22751 0.12945 -0.29623 0.6495 -0.22105 -0.57708 -0.45436 0.25636 0.099275 -0.1176 -0.16338 -0.23526 -1.8493 -0.10322 -0.35198 0.0024535 0.033223 3.3513 0.15836 -1.0583 -0.72565 -0.57345 -0.057453 0.47996 -0.99358 -0.80074 -0.62818 -0.22644 0.14946 -0.032743 -0.3374 0.20041 -0.0023766 0.012109 0.55461 0.15185 0.70218
coach -1.3191 0.50071 -0.44091 0.27854 -0.28167 -0.77318 -1.8684 0.6585 -1.7581 -0.93415 1.1725 1.1401 -1.7057 -0.79079 1.2353 0.2022 0.35995 0.91442 -1.0252 -0.44264 -2.3854 0.27066 -0.2895 -0.17293 0.304 -1.8483 0.40081 0.39601 -0.48398 -0.26892 1.9003 1.057 -0.10149 -0.40543 0.47148 0.71678 0.41254 1.0293 0.71875 -0.35488 -0.28058 0.59594 -0.89505 -0.28063 0.61414 0.57723 -0.19236 1.1007 -0.20213 0.8252
executive 0.23636 -0.093664 -0.24729 1.1486 0.66526 -0.21669 -0.88273 -0.67876 0.45906 -1.2011 0.324 1.4067 -1.5239 0.18451 0.52918 0.37282 0.039823 0.3012 0.39206 -0.72828 0.51169 0.15891 -0.41615 -0.49706 -0.98049 -1.4511 -0.012456 -0.35786 -1.6706 0.64447 2.3042 -0.10636 -0.020121 -0.26607 -0.45422 -0.87213 -0.018578 0.002061 0.71411 -0.20785 -0.32028 0.76318 -0.71661 -0.060271 -0.39169 0.049528 -1.1676 0.16172 -0.42703 1.6548
production 0.35808 -0.52533 -0.080425 0.10165 -0.47567 0.53815 -0.6731 -1.0525 0.76994 1.1221 1.0075 0.26246 -0.29171 -0.23487 0.83308 0.18155 0.35651 0.97671 -0.47373 -0.88687 1.6075 -0.8328 0.025867 -0.7759 -0.28627 -0.51853 -0.42263 0.14499 0.6292 0.45936 3.5133 -0.35411 0.38744 -0.085173 0.30017 0.10935 -0.055825 0.70916 -0.032329 0.037709 -0.50488 0.13524 -0.10868 -1.8467 0.11001 0.062888 -0.049938 0.0070335 -0.74211 0.78561
river 0.73109 1.0242 -0.26714 -0.33449 -1.4873 -0.3784 -1.2873 0.71923 1.1322 -0.90059 -0.12594 0.72664 0.72766 -1.0212 -1.61 -0.23452 1.2707 -0.064512 -0.68331 0.26957 -0.21492 -1.0354 0.7765 0.00015299 0.62976 -1.3818 -0.19453 1.3069 -0.30326 -1.4769 2.9696 -0.56795 0.33913 0.38007 0.0018625 -0.28222 -0.87329 -0.79432 1.3823 0.79638 -0.71245 -0.28103 0.056754 -0.97843 -1.1465 -0.62487 0.26281 -1.4434 0.40201 -1.3707
face -0.051524 0.25137 -0.14722 -0.061506 0.32593 0.38156 0.55556 0.62217 -0.16847 -0.21296 -0.28909 -0.15927 -0.65887 0.083074 0.58494 0.0089347 0.11029 -0.81686 -0.15163 -0.78485 -0.78144 0.21021 -0.034455 -0.2988 -0.46719 -2.1546 0.15288 0.50366 0.3593 -0.12171 2.9504 0.76009 0.025124 -0.36938 -0.40831 0.40751 -0.16736 -0.15224 -0.09004 -1.3537 -0.24557 0.53153 0.56965 0.18923 0.61818 0.066045 -0.029378 -0.40707 0.0065966 -0.61169
province 1.0481 -0.96769 -0.53122 0.97405 0.057407 -0.66999 0.50447 0.7854 0.18143 -0.36567 0.50126 -1.8973 1.0038 -1.6106 -0.32138 -0.16982 -0.2335 1.0152 0.11137 1.4865 -0.36701 -0.68202 0.30785 0.38975 0.028601 -1.6704 -0.076615 0.13202 -0.62198 -0.3884 3.564 -0.078971 -0.27956 0.06812 0.65281 0.38024 -0.7964 0.36415 0.07007 1.1944 -1.3365 0.82266 0.088684 -1.9498 -0.3918 0.025461 -0.69422 -0.024551 0.87407 -1.0059
park 0.34111 1.6838 -0.27013 0.91403 -0.39822 -1.0604 -1.7244 -0.60697 0.60083 -0.79669 -1.0248 -0.30963 0.097084 -1.3716 -0.29236 0.60255 1.2407 0.78956 -1.2776 0.15796 0.014214 -0.10963 -1.0911 -0.035624 0.22818 -1.0296 0.38084 0.51161 -0.55107 -1.1679 2.4775 -0.34698 0.25311 -0.68253 0.36669 0.037549 0.73613 -0.089027 0.019783 -0.28858 -0.56479 -0.60335 -0.4165 0.26696 0.44207 0.014374 -0.46199 -1.5983 0.39845 0.023026
father 0.095496 0.70418 -0.40777 -0.80844 1.256 0.77071 -1.0695 0.76847 -0.87813 -0.0080954 0.43884 1.0476 -0.45071 -0.58931 0.83246 -0.038442 -0.73533 0.26389 0.12617 0.57623 -0.23866 1.0922 -0.3367 0.081537 0.84798 -2.4795 -0.40351 -0.84087 0.12034 0.29074 1.9711 -0.50886 -0.45977 -0.13617 0.55613 0.22924 -0.18947 0.43544 0.65151 0.043537 -0.1162 0.72196 -0.66163 -0.17272 0.27367 -0.28169 -0.82025 -1.5089 0.052787 -0.035579
education -0.9266 0.69467 -0.59079 -1.0542 -0.16538 0.26239 -0.37788 -1.4453 0.40885 -0.30288 0.03182 -0.18016 0.42866 -0.89767 -0.56316 -0.27027 0.045694 0.62575 1.2644 0.76223 0.55267 0.49301 -0.60455 0.044394 0.21022 -1.4351 0.31501 -1.4332 -1.1363 0.2626 3.642 0.71513 -0.51682 -1.3208 0.011802 0.35513 -0.16616 0.89067 0.73568 0.24032 -0.63902 -0.30806 0.091853 0.32939 -0.5166 0.11908 -0.16218 0.60717 0.51684 0.83162
village 0.48284 0.54364 -0.31861 -0.32944 0.82965 -0.13847 -0.45208 0.0017623 -0.083864 -1.1738 -0.40242 -1.6601 1.0552 -1.2994 -0.35798 0.44823 1.0681 1.0713 -0.087318 1.2333 0.081161 0.26418 -0.24832 1.2894 0.14729 -0.77164 -0.68391 0.28282 0.094609 -0.1846 3.0294 -0.93536 0.25209 0.26816 0.61407 0.39091 0.27015 -0.31245 0.35563 0.98634 -0.37708 0.089727 0.023634 -0.647 -0.31003 -0.0017388 -0.95263 -1.3046 0.64336 -0.50107
energy 0.068807 0.36938 1.0194 0.72622 0.33166 -0.11674 0.0519 -0.6263 0.69984 1.1034 0.88412 0.61662 0.06318 0.52554 -0.60775 0.58884 0.86194 0.73354 -0.27098 -1.1423 1.231 -0.38583 0.16454 -1.2052 0.081969 -1.1499 0.34174 0.16186 0.46667 1.2949 3.2169 0.25992 -0.19911 -0.86953 -0.43616 -0.7124 -1.0666 0.37666 1.222 0.49324 -0.11295 0.31521 -0.073187 -0.56738 -0.21031 0.75698 -0.53484 0.86998 0.023162 0.49219
key 0.15912 0.22512 0.48318 0.62752 0.73202 -0.15163 -0.31572 -0.14877 0.13651 0.047836 -0.3496 -0.10764 -0.74178 0.4922 -0.50442 0.22205 0.34967 -0.88903 0.42555 -0.26921 0.31919 -0.34001 -0.33866 -0.14304 -0.42091 -1.3873 0.34693 -0.2115 -0.041758 0.36491 3.6069 -0.072954 -0.11201 -0.50525 0.75177 0.039188 -0.39388 0.21477 -0.47353 -0.22379 -0.44845 0.24211 -0.10163 -0.18937 0.10739 0.36207 0.2075 0.87523 0.35468 -0.31814
association -1.4406 0.58249 -1.2903 0.64414 -0.38313 -0.4135 -1.2314 -0.34478 0.76907 -0.92177 1.0592 0.35802 0.3303 0.11928 0.075642 -0.26642 0.026377 0.64826 -0.19121 -0.48528 0.18678 -0.15363 -0.41788 0.33233 -0.87561 -1.4564 -0.43698 -1.0328 -1.728 0.06726 2.888 0.21731 -0.36207 -0.52641 -0.45183 -0.30496 0.034511 -0.49968 0.66999 0.18588 -0.45591 -0.30164 0.16987 0.6089 0.55034 0.046437 -0.99937 0.61423 -0.18125 0.11436
player -1.4871 0.40362 -0.11132 0.79151 0.48877 0.0075059 -0.79438 0.73608 -0.69985 0.4624 1.1259 0.68915 -1.003 0.52276 0.83527 -0.34995 0.60207 0.29635 -1.019 -0.18823 -1.2797 -0.19548 -0.32376 0.68116 -0.01802 -1.506 0.36944 -0.76949 -0.14064 -0.76108 3.0514 0.47131 0.36084 -0.20647 0.82575 1.0588 0.52726 0.91026 -0.16279 -1.3141 0.44188 0.1986 -0.14298 0.26461 -0.27924 0.2561 0.51025 0.23002 -0.27342 0.23677
victory -0.66385 0.41015 0.073617 0.85937 0.30031 -0.11978 -0.45367 1.4574 -0.73222 0.28086 -0.7589 -1.2996 -0.96887 -0.57294 -0.25255 -0.7098 0.52366 -1.3184 -1.7125 -0.074232 -1.2343 -0.37677 -0.4526 -0.95694 0.36827 -1.8201 -0.20622 -0.31884 0.1527 -0.30461 2.3935 1.3234 -1.0144 0.35188 -0.17079 -0.67128 0.38904 0.94105 -0.42382 -1.3848 0.15837 -0.59283 -0.80945 -0.46636 -0.086871 1.419 -0.5528 -0.19525 0.43202 -0.6991
post -0.25084 0.29379 0.17915 -0.31418 -0.14598 -0.79813 -0.98887 -0.13936 0.06614 -1.105 -0.65604 -0.26072 -0.53725 0.1231 0.30833 -0.020635 -0.69418 -0.77642 -0.038226 0.57202 0.37442 0.13187 -0.14168 0.014391 -0.14011 -1.7285 -0.16066 0.10788 -0.15002 0.77973 2.978 -0.45587 -0.14469 -0.37718 -0.59619 0.38612 -0.0039065 0.35839 0.31881 -0.28991 0.46167 0.52256 -0.30722 0.075893 -0.50202 0.24811 -0.02015 0.074841 0.20337 0.1406
social 0.010132 0.8696 -0.37497 -0.48787 0.0067286 1.0141 0.053107 -1.3147 -0.46806 -0.063777 0.11875 -0.157 -0.18661 0.09362 -0.23164 -0.47303 0.2011 -0.19909 1.299 -0.056078 0.0026792 0.24686 -0.69481 0.26389 0.51338 -1.0197 -0.51158 -1.0575 -0.29798 1.1449 3.6952 0.83065 -0.31149 -1.6082 -1.4995 0.24215 -0.89554 0.10793 0.47285 0.074575 -0.30452 -0.31313 0.058216 0.69159 -0.21348 -0.17698 -0.25885 0.15551 0.89262 0.14503
job -0.20343 -0.045235 0.23346 -0.59289 0.49678 -0.18233 -1.113 0.32915 -0.083461 -0.46827 -0.2608 0.062637 -0.69844 -0.059388 0.96493 -0.27605 0.041796 0.44355 0.39495 -0.7385 0.20983 0.29984 -0.52718 -0.13907 0.20699 -1.6566 -0.15556 -0.089032 0.53444 0.34896 3.1243 0.7747 -0.038041 -0.63928 0.0061523 0.51253 -0.14199 0.76461 0.68417 -0.84998 -0.56657 0.039032 -0.40812 0.34442 -0.27174 -0.54446 0.055983 0.78093 0.0046384 1.3011
front 0.021786 0.26398 0.64475 -0.37576 0.44165 -0.30413 -0.53885 -0.22087 -0.43253 -1.1642 -0.34724 -0.98567 -1.0723 0.51097 -0.60139 -0.11341 -0.10118 -0.06655 -0.23432 -1.0964 -0.80516 0.19725 -0.30023 0.11906 -0.23811 -1.3668 -0.1198 1.0927 -0.11638 -0.15173 3.2787 0.33426 -0.54537 0.24694 -0.64439 0.4744 0.36013 -0.07902 -0.30955 -0.11076 0.47378 0.36476 -0.79684 -0.21836 -0.20472 -0.11582 -0.25167 -0.78021 -0.018188 -1.0066
list -0.13744 0.64878 0.36947 0.19996 0.33443 0.15545 -1.0111 -0.29704 0.4118 -0.4646 -0.48516 0.23458 -0.048356 0.61609 0.90492 -0.51188 -0.027241 -0.86029 0.129 -0.051463 -0.16688 -0.98151 0.80419 0.71669 -0.76432 -0.86984 -1.0519 -0.60237 -0.83603 -0.28101 3.0425 -0.0062409 0.39302 -0.37993 0.5556 0.56107 0.73107 -0.014902 -0.73343 -0.46343 -0.2982 -0.10009 0.23964 0.45689 -0.55236 0.63445 -0.70379 0.74294 0.20307 -0.14804
built 1.1018 0.54578 0.32683 -0.49481 -0.3978 -0.084424 -1.3152 -0.60051 -0.81543 -0.6571 -0.11818 0.17681 -0.28274 -0.36117 -0.83089 0.4685 0.15535 1.0653 -0.7487 -0.11764 0.51872 -0.65554 -1.3349 -0.44307 0.068788 -0.95069 -0.23293 0.01555 0.50668 0.10918 2.9111 -1.2516 0.1576 0.0032561 0.47193 0.39639 0.63127 0.92407 -0.28111 0.52132 0.14232 -0.92276 0.1627 0.22713 -0.49965 0.67669 -0.88759 -1.5676 -0.42108 -0.63903
miles 1.0866 0.98515 1.2071 -0.026385 -0.10026 -0.62922 -0.56072 0.063335 0.25465 -0.59223 -0.7904 -1.7141 0.28782 -1.1864 -0.073708 -0.19588 0.63105 1.2695 -1.9036 -0.041921 -0.13618 1.0816 0.42373 0.16855 0.58558 -0.81473 0.60763 0.7229 0.30053 -0.66455 2.9573 -0.37766 0.36233 0.68659 0.97132 -0.64965 -0.25204 -0.16592 0.75706 1.3013 -0.31491 0.80362 1.2476 -0.60369 -1.4289 -0.14497 0.16232 -0.82338 -0.6569 -0.34391
radio -0.18365 0.31819 0.6987 0.42428 -1.0583 -0.44329 -1.4099 0.033347 -0.43923 0.37302 0.67606 -0.32608 0.31202 0.62365 -0.33065 0.12888 -0.58507 0.92626 -0.88259 0.33774 0.68364 1.1332 0.50047 1.1946 0.30051 -1.1196 -0.4598 0.10736 -0.09825 0.007234 3.1082 -0.11736 -0.19675 -0.66253 -0.81423 -0.040469 0.82776 -1.0758 -0.52635 0.36169 1.6813 0.7563 -1.0765 -0.72454 -0.64641 0.033986 -1.0456 0.60379 -0.34862 0.7268
live 0.35541 0.35515 -0.015107 -0.072926 0.16711 -0.082777 -1.0836 0.056815 0.097282 0.42781 0.20133 -0.5119 0.93244 0.21407 1.1883 0.54556 0.50735 0.45187 -0.44439 0.055305 0.19602 0.77945 0.90007 0.94974 0.38457 -0.32051 -0.62853 -0.31053 0.40953 -0.64054 3.4402 0.34869 -0.23118 -0.27595 -0.29151 0.28739 0.73659 -0.77103 -0.51139 -0.39139 -0.19287 -0.094285 -0.36624 0.051009 0.013225 0.16846 -0.66598 -0.95158 -1.0704 0.36448
increase 0.21093 0.10012 0.85627 -0.54524 0.22253 0.64364 0.090537 -0.73151 1.0167 0.54409 0.44708 -0.74948 0.42369 -0.93058 0.47171 0.38841 -0.066188 -0.45857 -0.079724 -0.7589 0.70502 -1.2046 -0.084494 -0.76654 -0.35268 -1.128 0.21598 -0.23045 0.35608 1.1778 3.7451 1.3071 0.32238 -0.31957 0.083539 -0.80131 -0.23285 0.10466 0.10558 -0.061841 -0.9676 0.15687 0.08461 -0.32986 -0.1638 -0.65515 -0.025958 0.87098 0.17326 0.62359
sent 0.56908 -0.3038 0.58962 -0.60463 0.23175 -0.83838 -0.96474 0.69986 0.050388 -0.67683 0.010685 0.47909 0.15622 -0.081531 0.40144 -0.50638 -1.0101 -0.87595 -0.77605 -0.055398 0.31691 0.024995 0.48105 -0.54154 0.049018 -2.0521 0.444 -0.33084 -0.28094 -0.38326 2.5332 0.0072955 -0.4257 -0.2783 -0.059978 0.4162 0.066504 -0.27241 0.12932 0.054092 0.57229 0.64629 0.23473 -0.52973 0.42543 0.15771 -0.066993 0.08032 -0.26301 -0.76193
king 0.50451 0.68607 -0.59517 -0.022801 0.60046 -0.13498 -0.08813 0.47377 -0.61798 -0.31012 -0.076666 1.493 -0.034189 -0.98173 0.68229 0.81722 -0.51874 -0.31503 -0.55809 0.66421 0.1961 -0.13495 -0.11476 -0.30344 0.41177 -2.223 -1.0756 -1.0783 -0.34354 0.33505 1.9927 -0.04234 -0.64319 0.71125 0.49159 0.16754 0.34344 -0.25663 -0.8523 0.1661 0.40102 1.1685 -1.0137 -0.21585 -0.15155 0.78321 -0.91241 -1.6106 -0.64426 -0.51042
tax -0.12886 -0.10336 0.58645 -0.93075 -0.29533 0.97968 -0.17801 -0.98527 0.021705 0.14929 -1.1995 0.28068 0.43931 -0.45638 0.90094 -0.35724 0.40699 -0.40758 0.94133 -0.73028 1.2678 -1.5098 -0.59678 -0.45457 -0.94654 -1.916 -0.079224 -0.26048 0.44263 0.51655 2.9902 0.46911 -0.55086 0.31869 -0.058059 -0.53891 -0.25384 0.12419 0.50693 -0.7111 -0.70366 0.40543 0.68372 0.7662 -1.29 -0.71928 -0.80929 0.85277 1.0189 0.57826
title -1.2383 0.99487 -0.73677 1.0773 0.2541 0.081738 0.17186 0.59812 -0.43664 0.029587 0.28811 0.42254 -1.4255 -0.41574 1.1129 -0.41529 -0.057627 -0.23211 -1.256 0.051955 -0.69603 -0.58391 0.041078 0.29438 0.034322 -1.7282 -1.19 -0.8353 -0.54406 -0.16701 2.5351 0.080653 -0.41849 0.30913 0.21878 0.047821 0.54864 0.89808 -1.0174 -1.5964 0.48255 -0.5546 -0.2438 -0.022622 -0.91066 0.14962 0.1453 -0.97966 0.20244 -0.36069
global 0.19864 0.33276 0.60186 0.42941 -0.066114 -0.35145 -0.06458 -1.343 1.3976 0.31494 0.38262 0.34206 -1.0415 0.76362 -0.00048788 0.61194 0.62786 -0.081468 -0.37687 -0.25974 0.8842 -0.31794 -0.56918 -0.51011 -0.040914 -1.1634 -0.20137 -0.45451 -0.016318 1.6068 3.3591 0.60102 0.49509 -0.83038 -1.1956 -0.81721 -1.1357 -0.57086 -0.030907 -0.63515 -0.74529 -0.52403 0.4333 -0.2881 0.64725 0.62501 0.23371 0.70031 0.037702 0.28565
result 0.53657 -0.14383 -0.21326 0.14941 -0.31491 0.8389 0.30764 0.48147 0.025555 0.19198 0.44375 -0.19884 -0.47023 -0.68483 0.72226 0.19424 0.065015 -0.61838 -0.57741 -0.50456 -0.078714 -0.66165 0.21046 -0.30488 0.17263 -1.2373 -0.48907 -0.088491 0.516 0.81034 3.5436 0.17568 0.16615 -0.88681 -0.14541 -0.18426 0.36958 0.1991 0.061226 -0.34726 -0.39652 -0.29672 -0.044672 0.19632 -0.10629 0.064324 -0.061213 0.56205 0.46794 -0.12408
tour 0.19086 1.1069 -1.034 0.73168 -1.0908 -0.37548 -1.4178 0.68071 0.81567 -0.1901 0.0076726 -0.62928 -1.0682 0.33907 1.3072 -0.31096 0.24359 -0.027208 -0.86928 -0.31525 -0.0042566 0.5195 -0.1194 0.49353 0.2449 -0.70088 -0.68048 -0.214 -0.81563 0.087816 2.7756 0.71952 -0.52033 0.93049 0.28794 -0.1446 0.70052 0.45729 -1.0526 -0.86324 -0.45749 -0.57036 -0.22817 -0.61889 0.30703 -0.10808 0.22655 -0.36935 -0.59172 -0.10713
hospital 1.5825 0.57127 -0.36832 -0.76284 -0.064663 -0.40442 -0.69356 1.0904 0.97965 -0.9367 0.34795 -0.88895 -0.0093445 -0.70433 -0.40379 0.54935 -1.3964 0.47221 -0.2266 1.1133 -0.032548 1.7034 -0.40096 -0.016425 -0.51178 -1.7195 0.1164 0.18428 -0.80811 -0.21776 2.6291 0.42102 0.31785 -0.68186 0.59883 0.73562 1.5399 0.18854 2.2163 0.52169 -0.25507 0.0072179 -0.11845 0.17952 0.69213 0.025527 -0.76053 -0.60733 0.3097 0.39452
technology -0.25722 -0.093385 1.1371 0.95147 -0.45156 -0.55302 -0.48637 -1.6476 0.59422 0.75211 0.74173 0.26373 -0.29181 0.21239 -0.86431 0.87086 -0.34193 0.99052 0.026313 -0.25234 1.4177 0.0025313 -0.65843 -0.35972 0.56982 -1.6079 -0.19695 -0.99719 0.002233 0.046416 3.2575 -0.26845 -0.09459 -1.3317 -0.039934 -0.1586 -0.8549 1.0837 0.20209 -0.18876 0.34616 -0.32074 0.26552 0.48898 0.65638 0.50432 0.80157 0.58182 -0.068956 0.39337
believe 0.58979 -0.26647 0.53642 -0.46648 0.93958 0.059251 -0.43161 0.050446 -0.1823 0.56424 0.093586 0.16454 -0.43468 -0.24738 0.64491 0.65876 0.77999 -0.32867 0.12281 -0.30894 -0.63677 0.33784 0.39404 0.0051813 0.58064 -2.1587 -0.90265 -0.39912 0.35394 -0.37011 2.6363 0.2065 -0.68239 -0.90132 -0.12276 -0.91148 -0.16604 -0.23857 -0.080387 -0.10168 -0.6872 -0.21279 0.2631 0.76259 0.5156 0.057379 -0.75805 0.57521 0.0235 0.056102
organization 0.0045919 0.044048 -0.45486 0.085465 0.82071 -0.29642 -0.74135 -0.73182 1.1468 -0.30318 0.82331 -0.038242 -0.61542 0.88862 -0.26852 -0.81056 0.42294 0.27055 0.39423 0.50166 -0.3875 -0.1128 0.035386 0.070233 -1.0952 -1.4779 -0.077482 -0.76481 -0.80932 0.075326 3.187 0.24256 -0.94285 -1.0391 -1.4213 -0.36973 -0.23704 -0.22633 0.12324 0.37992 -0.53272 -1.0171 -0.12099 0.063301 0.14735 0.10486 -1.3653 0.78741 -0.4363 0.43508
published -0.066601 0.59438 -0.68071 -0.57313 -0.41617 0.36709 -1.3616 -1.2834 -0.16036 -0.2888 -0.19361 0.61374 -0.42678 -0.41019 1.1893 -1.008 -1.0106 -0.69389 -0.55886 0.81934 1.0556 0.15769 1.2894 0.22504 0.42763 -0.9203 -1.5778 -0.45674 -0.98914 0.46641 2.6331 -1.813 -0.085059 -0.79011 -0.95494 -0.22583 0.17997 0.11348 -0.068211 0.23217 1.1468 -0.53449 -0.22057 -0.37131 -0.25866 0.4144 -0.049894 0.55094 0.10518 -0.16974
course 0.078276 0.79227 -0.73527 -0.30457 -0.51744 -0.29335 -0.33159 0.1756 0.0027673 -0.32157 -0.81201 -0.31119 -0.63787 -0.12897 0.19602 0.24684 0.55952 0.44276 -0.5772 -0.55434 0.018649 0.60622 0.019482 0.19012 0.89629 -1.5299 -0.481 0.12324 0.16703 -0.16081 3.1816 0.067694 -0.60468 0.040089 0.58823 -0.35068 -0.085815 1.0917 -0.012533 -0.47387 -0.55886 -0.73592 0.45093 0.96578 -0.2268 -0.16473 0.99435 -0.080085 -0.041225 0.42042
living 0.44332 0.54225 0.15822 -1.0745 1.225 0.45945 -1.0535 -0.91786 -0.2494 0.14724 0.4018 -0.84114 1.2333 -0.31949 1.0469 0.52026 0.61265 0.26711 0.27281 0.59648 -0.14925 1.2287 -0.21074 0.35942 0.65177 -0.70452 -0.58308 -0.65758 0.63612 0.12299 3.0721 0.34538 -0.072118 -0.57611 0.14036 0.32919 -0.22127 -0.11986 0.58359 -0.20843 -0.80094 0.028095 0.96203 0.35838 -0.42028 -0.17176 -0.71876 -1.0631 0.064769 -0.44411
care 0.68353 0.22095 -0.056607 -0.97564 0.021986 0.83748 -0.68084 -0.32343 1.2331 -0.2715 -0.27033 0.10855 0.391 -0.33831 0.078469 0.078807 -0.34752 0.16324 1.281 -0.18929 -0.10121 0.813 -0.567 -0.091478 -0.068022 -1.4918 -0.34183 -0.74081 0.30182 0.151 3.3446 1.2234 -0.17981 -0.52359 -0.17783 0.26673 0.21092 0.37758 1.4058 -0.67737 -0.49647 -0.2898 0.42994 0.97378 0.27325 0.30263 -0.62122 0.17708 0.10696 1.4949
art -0.63628 1.2969 -1.278 -0.29745 0.32062 -0.63759 -1.0316 -1.4836 -0.73537 0.7604 -0.015649 0.18866 0.11919 0.0259 0.42088 -0.26346 0.33993 0.12065 -0.30207 0.024765 1.2486 0.39136 -1.176 0.15052 0.037568 -1.0189 -1.6133 -0.53401 -0.11916 -0.85809 2.5461 -0.72314 0.38181 -1.4622 -0.58746 0.82853 -0.19443 0.92467 0.15477 0.25039 0.84462 0.075799 0.7216 -0.026482 0.27818 0.68092 0.2212 -0.71431 -0.34964 -0.033868
morning 0.12099 0.10119 -0.18065 0.20052 0.34682 -1.0604 -1.1647 0.64395 -0.33524 -0.79036 -0.55958 -1.0967 -0.14952 0.36835 0.5777 0.27746 -1.3737 -0.23306 -1.2181 -0.46396 0.91798 1.31 0.5937 0.047051 0.65399 -1.0776 0.33062 1.0118 0.27919 0.15841 3.1537 0.45444 -0.15605 0.33373 0.033046 -0.40556 0.41308 -0.28614 0.31554 0.3254 -0.44613 0.36396 -0.53107 -0.38338 0.63936 -0.079852 0.04625 -0.20362 0.41999 0.25573
event 0.029239 1.3932 -0.63257 1.4428 -0.2371 -0.16312 0.028908 0.47163 0.4698 -0.15165 -0.22802 -1.374 -0.56937 0.18 1.6237 -0.27864 0.47416 0.31183 -1.6133 -0.64953 0.47584 -0.24477 -0.3199 0.17125 0.41976 -0.98547 -0.81791 -0.47376 -0.40819 0.24948 2.7581 0.79498 -0.48018 -0.51766 -0.57829 -0.13674 0.79869 0.69494 -0.92537 -0.50717 -0.41065 -0.58304 -0.26909 0.19583 0.42346 -0.21672 0.08189 -0.32385 -0.33378 0.18497
band -0.77245 0.21817 -0.40049 -0.52816 -0.46087 0.58611 -1.5542 0.54177 -0.28788 0.92261 1.0989 0.25979 -0.32883 0.79634 -0.23009 -0.22104 0.45758 0.01364 -0.63597 -0.60617 -0.084844 0.2725 0.39152 0.63984 -0.49816 -0.17932 -1.418 -0.029052 -0.074864 -0.60293 3.0585 -0.84752 0.10378 -0.15262 0.023318 0.095483 0.73301 -1.6128 -0.075601 -0.68264 0.075109 -0.56855 -1.6178 -1.0405 0.36042 -0.37588 0.027557 -1.2064 -1.3964 0.16595
teams -0.52881 -0.032132 -0.085858 0.64089 -0.35813 -0.49465 -1.2832 0.84755 -0.35268 -1.0975 0.59391 -0.29253 -1.0941 0.19011 0.42473 -0.51049 0.76214 0.49514 -1.2991 -0.84818 -0.80853 -0.1807 0.75779 0.67283 -0.79967 -0.76924 -0.099643 -0.61877 -0.17763 -0.9422 3.2331 1.4436 -0.23268 -1.0838 0.95628 1.0439 0.099316 0.69735 -0.45783 -0.65099 -0.6058 -1.0683 0.508 0.3479 -0.071952 0.27279 0.16318 1.0406 -0.29513 -0.13426
daily -0.0013649 0.68933 -0.15317 -0.27924 -0.55025 -0.95791 -0.54044 -0.073406 0.48924 -0.17902 -0.26823 -1.0313 0.20161 -0.37262 0.91382 -0.78988 -1.1336 0.038221 -0.44616 0.41989 0.73232 0.21217 0.84187 0.93825 0.16812 -1.2316 -0.58487 0.43795 0.22939 0.77933 3.4767 0.088054 0.41261 0.81239 -1.367 -0.36935 0.15687 -0.18682 0.51365 1.1878 1.1219 0.30568 -0.16913 0.2845 0.27435 -0.37834 -0.68038 1.1438 0.23009 0.44973
song -0.9166 0.76511 -0.66093 -0.023052 -0.30395 0.43062 -0.68179 0.22567 -0.24149 1.4429 0.32787 0.63891 -0.17775 0.30394 0.69253 -0.55565 0.0094356 -0.38895 -0.097069 -0.11433 0.046024 0.43038 1.1194 0.50138 1.3218 -0.62171 -1.7675 0.10778 -0.28412 -1.1248 3.2459 -0.91298 0.35381 0.75976 -0.081547 -0.43563 1.1399 -0.73743 -0.87067 -0.58185 0.11249 -0.19434 -1.174 -1.6072 0.2563 -0.39698 0.02561 -1.2757 -0.54513 0.37287
popular -0.14042 0.60235 -0.5062 0.29788 -0.59072 0.26872 -1.3395 -0.84819 -0.56342 1.0069 -0.16328 -0.28175 0.522 0.45554 0.28001 -0.32957 -0.091662 0.49949 -0.14767 -0.17506 0.05676 -0.063781 -0.13271 1.2491 0.24836 -1.2152 -1.3403 -0.17845 -0.085122 0.50874 3.1133 -0.016007 -0.1532 -0.11221 -0.060053 0.079335 -0.38122 0.15287 -1.2032 -0.19373 0.061746 0.65986 -0.72096 0.048026 0.40668 0.19201 -0.85027 -0.47131 0.64034 -0.16869
tv -0.13136 0.46825 0.75134 0.95051 -0.38869 -0.044219 -0.93406 -0.69549 -0.10441 0.51264 -0.056281 0.041126 -0.21433 1.3268 0.79496 0.33627 -0.56867 0.87114 -0.65297 0.38006 0.93999 1.0702 0.70731 1.3983 0.030629 -1.3851 -1.0294 0.3209 0.12246 -0.30383 2.8436 0.70197 0.26501 -0.2222 -0.77451 0.44587 0.1547 -0.8439 -0.82802 -0.72013 0.89394 1.1348 -0.75965 -0.43423 -0.71667 -0.088498 -0.60888 0.09266 0.00080094 0.87073
operations 1.1591 -1.1999 0.072653 0.58819 -0.29679 -0.51001 -0.49371 0.017692 1.0616 -1.0094 0.52709 0.2727 -0.84104 0.093769 -0.7347 -0.15335 -0.098236 0.4887 -0.64312 0.22995 1.0776 -0.26086 -0.24341 -0.62283 -1.2898 -1.1614 -0.060444 -0.5854 0.83077 0.38283 3.4401 -0.045679 -0.28183 -0.34913 0.10207 0.426 -0.40933 -0.19524 -0.054891 0.66443 -0.49009 -0.23305 0.44956 -0.70954 -0.093103 -0.57026 -0.17424 0.5907 -0.54211 0.99565
love -0.13886 1.1401 -0.85212 -0.29212 0.75534 0.82762 -0.3181 0.0072204 -0.34762 1.0731 -0.24665 0.97765 -0.55835 -0.090318 0.83182 -0.33317 0.22648 0.30913 0.026929 -0.086739 -0.14703 1.3543 0.53695 0.43735 1.2749 -1.4382 -1.2815 -0.15196 1.0506 -0.93644 2.7561 0.58967 -0.29473 0.27574 -0.32928 -0.201 -0.28547 -0.45987 -0.14603 -0.69372 0.070761 -0.19326 -0.1855 -0.16095 0.24268 0.20784 0.030924 -1.3711 -0.28606 0.2898
fight 0.18081 -0.88943 -0.056444 0.27761 -0.034368 0.021453 0.65907 0.46379 0.39876 -0.068031 -0.34704 -0.15171 -1.0866 -0.20378 0.52666 -0.26863 0.65746 -0.14551 -0.52916 -0.15447 -0.58662 -0.013325 0.27604 -0.19283 -0.35384 -2.1461 0.18328 -0.90695 0.72437 0.23069 2.7465 0.86624 -1.2765 -0.38499 -0.9856 0.13895 -0.49444 -0.29634 -0.47713 -0.91626 -0.64034 0.1089 -0.23269 0.036234 0.73764 0.12653 -0.18742 -0.92146 -0.54002 0.38856
try 0.38204 -0.50218 0.2995 -0.46116 0.20973 -0.26879 -0.317 0.6004 -0.22653 0.32777 -0.41231 0.65231 -0.6068 0.39835 0.22622 0.73449 1.3694 -1.057 0.041183 -0.88573 0.25723 0.38203 0.13009 0.36953 0.033313 -1.7332 0.10601 -0.80652 0.68499 -0.92128 2.949 1.1876 -1.687 -0.1293 0.2607 0.33787 -0.30889 0.0165 0.14772 -0.69315 -0.1241 0.36137 0.47371 -0.02768 0.67094 0.52057 0.52428 -0.072414 0.24452 -0.027145
aid 1.1367 -0.22735 0.50183 -0.96386 -0.12277 0.23479 -0.30741 0.094688 1.2514 -0.18783 0.12542 -0.027147 0.52966 -0.37436 0.29898 -0.24385 0.30238 -0.072848 0.83845 0.099687 0.54771 0.41751 -0.19871 -0.61071 -0.19851 -1.3706 0.75896 -0.54436 -0.11185 0.11864 3.5027 0.9574 -0.72779 0.35359 -0.28606 0.71207 -0.09076 -0.55552 0.14108 -0.21862 -0.08636 0.39208 1.0878 -1.2335 0.053736 -0.036232 -0.73775 1.1808 -0.43709 -0.26197
network 0.94202 0.32452 1.3349 1.2618 -0.60987 0.17688 -0.98035 -0.94766 0.94922 0.018239 0.43821 0.032159 -0.61533 0.96995 -0.53302 0.30519 -0.59687 0.8847 -0.042054 0.63582 0.78829 0.15285 0.1341 1.3646 -0.4106 -1.1363 -0.067727 -0.30198 0.20933 -0.11849 3.4181 0.40527 0.31088 -0.93624 -0.9202 0.27555 -0.31572 -0.38106 -0.69214 0.084005 0.7193 0.048203 -0.61741 0.39509 -0.64324 -0.1699 -0.59826 0.25268 -0.18159 0.58189
space 1.5873 1.0444 0.98571 0.21475 0.76442 -0.58841 -0.61534 -0.9215 0.62925 -0.48231 0.43903 0.2115 -0.22198 1.7186 0.10879 0.47857 0.49157 0.79214 -1.0202 -0.53064 0.52816 0.15984 -0.81664 -0.32418 0.31581 -0.70795 -0.26112 0.12716 0.79791 0.42946 2.929 -0.12195 -0.46265 -0.80032 -0.51309 0.50381 0.28571 0.5836 -0.0606 0.45625 0.42034 -0.076178 0.36909 0.59936 -0.89906 0.11412 0.32726 -0.42911 -0.90878 0.41363
common 0.46081 0.66677 -1.011 0.29447 0.3131 1.2361 0.2869 -0.82053 0.10422 -0.18673 0.29804 0.50869 0.8684 -0.42768 -0.51955 0.42438 -0.043677 -0.0036784 -0.018065 -0.47968 -0.42315 -0.52421 0.056244 0.45255 0.1434 -1.2191 -0.46342 -0.13916 0.41231 0.088931 3.5417 -0.24082 -0.13857 -0.53886 0.33673 -0.37837 -0.27632 -0.63978 -0.41028 0.16582 -0.24079 -0.33612 0.40687 0.76946 0.82366 0.43305 0.12776 0.21193 0.34127 -0.052692
thousands 1.1515 -0.39703 0.9735 -0.83455 -0.14785 -0.47469 -0.98629 0.44072 0.10985 0.0073914 -0.4569 -1.2794 1.0253 -0.5337 1.0906 -0.36994 -0.0017323 -0.012934 -0.20921 -0.80484 0.30218 0.29622 0.043949 -0.062642 -0.011756 -1.2806 -0.23914 -0.50524 0.28103 -0.31305 3.0938 0.68201 -0.38915 -0.59624 -0.68694 0.79195 -0.15878 -0.79453 -0.20664 0.45275 -0.42613 0.35096 0.5505 0.2591 0.71832 -0.053633 -1.061 -0.46405 -0.92481 -1.6236
winning -1.3709 0.82909 0.030153 0.61252 0.051273 0.43582 -0.81314 0.60847 -0.30016 0.70413 -0.39264 -0.66554 -1.1384 0.31659 0.73581 -1.0594 0.97538 -0.33993 -1.515 -0.31617 -0.30623 0.099122 0.27515 -0.16787 0.23592 -1.4996 -0.49693 -0.62729 -0.21559 -0.20817 2.5386 1.011 -0.42432 0.19068 0.25296 -0.204 0.023421 1.5494 -0.40401 -1.473 -0.088882 -0.22735 -0.3192 -0.053057 -0.92548 0.37826 -0.18645 -0.15123 0.12836 -0.17395
scored -0.9809 0.14756 0.45416 -0.050933 1.0333 0.3626 -1.3033 0.2163 -0.6215 0.7366 0.25323 -0.063461 -1.703 0.12796 -0.15742 -1.4929 0.96741 -1.7168 -2.0306 0.25597 -1.2535 0.26892 0.50698 -0.6334 0.061801 -0.2198 1.4293 -0.46177 -0.59694 -1.5778 2.0836 1.3307 0.57157 -0.014229 0.69573 0.29425 0.5614 1.2923 0.40284 0.24436 0.11895 0.78483 -0.32882 -1.1402 -0.94519 0.69862 0.15472 0.018592 0.17319 -0.30453
performance -0.50986 0.28758 -0.41286 0.18405 -0.038266 0.010596 -0.083871 -0.19228 0.073327 1.3219 0.35618 -0.064267 -0.90682 0.1474 0.19528 -0.63338 -0.11165 0.15256 -0.68727 -1.1407 0.35791 0.39082 -0.30861 -0.68713 0.40257 -0.60808 -0.79529 -0.0090754 -0.32779 0.03577 3.4517 0.62725 1.0889 -0.88206 0.64118 0.018994 0.79542 0.81287 -0.47404 -0.91343 -0.31819 -0.20503 -0.54741 -0.49252 -0.1483 -0.094014 0.33103 0.33508 0.13401 1.0052
sports -1.1476 1.486 -0.53553 1.4884 -0.48945 -0.78874 -1.0603 -1.1097 -0.18863 -0.38284 0.19501 0.067649 -0.74472 0.24205 0.96511 -0.032038 -0.14121 1.7449 -0.73301 -0.58727 0.17896 0.57795 -0.21835 1.1371 -0.51163 -1.0939 -0.56724 0.0020169 -0.30077 0.18371 2.6094 1.0519 -0.008775 -0.72297 -0.52943 0.663 -0.024681 0.2147 -0.38752 0.099251 0.58373 0.10047 -0.17571 0.99239 0.050743 0.24906 -0.55173 0.55462 0.073031 0.46026
person 0.61734 0.40035 0.067786 -0.34263 2.0647 0.60844 0.32558 0.3869 0.36906 0.16553 0.0065053 -0.075674 0.57099 0.17314 1.0142 -0.49581 -0.38152 0.49255 -0.16737 -0.33948 -0.44405 0.77543 0.20935 0.6007 0.86649 -1.8923 -0.37901 -0.28044 0.64214 -0.23549 2.9358 -0.086004 -0.14327 -0.50161 0.25291 -0.065446 0.60768 0.13984 0.018135 -0.34877 0.039985 0.07943 0.39318 1.0562 -0.23624 -0.4194 -0.35332 -0.15234 0.62158 0.79257
airport 1.5719 0.58655 0.16413 0.35197 -0.36115 -1.6337 -0.62805 0.11577 0.34076 -0.61184 0.41981 -0.57607 -0.30551 -0.56476 -0.067369 0.82933 -0.71416 0.9558 -1.4037 -0.022304 0.8973 0.94519 -1.2876 0.25695 -0.31936 -1.7324 1.1564 1.1183 0.23981 -0.37644 1.9239 0.75797 -0.34853 -0.71668 0.42265 -0.28627 0.95813 -0.29014 -0.029019 1.5081 0.15 1.0292 0.82773 -0.30834 -1.1597 -0.13498 -0.41566 -0.29748 0.56497 -0.073029
internet 0.57121 -0.23423 1.5067 0.82537 -0.45765 -0.61598 -1.2452 -1.3567 0.92592 1.1069 -0.19654 0.06855 -0.17516 0.28349 0.43723 -0.03652 -0.94216 -0.1436 0.5045 -0.14885 0.94491 0.11124 -0.26166 1.3998 0.37113 -1.5779 -0.20257 -0.80787 0.37267 -0.17394 3.2091 0.07145 0.15909 -0.86939 -1.1928 -0.32419 -0.81756 -0.31222 -0.62843 -0.25575 1.0357 0.040427 -0.068917 1.4876 0.096186 -0.18381 0.028125 -0.071777 0.4303 0.1894
movement -0.30695 -0.33417 -0.41905 -0.77643 0.13629 0.21405 -0.14562 -0.41073 0.010722 0.72117 0.83375 -0.92261 -0.60803 0.47743 -1.3782 -0.39002 0.48779 -0.52937 0.26822 0.11146 -0.51849 0.17737 -0.2164 0.18044 -0.045634 -1.1083 -0.68162 -0.69731 -0.076416 0.9256 3.5251 -0.5079 -1.3771 -0.42826 -1.2412 -0.47069 -0.13225 -0.66188 -0.3952 1.0899 -0.1816 -0.36169 -1.0835 -0.34647 0.63106 -0.2806 -0.48895 -0.6348 -0.14443 -0.84288
data 0.53101 -0.55869 1.7674 0.44824 0.22341 -0.34559 -0.77679 -0.96117 1.1669 0.074279 0.8147 -0.059428 0.064599 0.0015176 0.099179 0.36602 -0.98724 -0.83913 0.15917 -0.77603 0.73474 -0.64861 0.46174 0.0088162 0.51738 -0.65976 -0.7401 -0.13928 0.081094 0.20657 3.5652 -0.82264 0.5736 -1.7268 0.0062356 0.067672 -0.23411 0.035163 0.26507 -0.29966 0.74323 -0.45027 0.19406 0.48611 -0.43075 -0.2521 1.2774 1.5815 0.65838 -0.20978
annual -0.37791 1.0773 -0.66116 -0.11279 0.45041 -0.56139 -0.58576 -0.93223 1.4882 -0.06564 -0.44609 -0.98404 0.88088 -0.18864 1.1978 -0.67449 -0.02678 -0.012949 -1.1207 -0.34115 1.4087 -1.3492 -0.24899 -0.54433 -0.68191 -0.55549 -0.66159 -0.35694 -1.1895 0.62435 3.2609 1.2453 -0.22373 0.40704 -0.43906 -0.44327 0.13702 0.0054712 0.12888 -0.61378 -1.0401 -0.12735 -0.79365 -0.45138 -0.33485 -0.19037 0.39579 0.53896 -0.35373 0.50487
computer 0.079084 -0.81504 1.7901 0.91653 0.10797 -0.55628 -0.84427 -1.4951 0.13418 0.63627 0.35146 0.25813 -0.55029 0.51056 0.37409 0.12092 -1.6166 0.83653 0.14202 -0.52348 0.73453 0.12207 -0.49079 0.32533 0.45306 -1.585 -0.63848 -1.0053 0.10454 -0.42984 3.181 -0.62187 0.16819 -1.0139 0.064058 0.57844 -0.4556 0.73783 0.37203 -0.57722 0.66441 0.055129 0.037891 1.3275 0.30991 0.50697 1.2357 0.1274 -0.11434 0.20709
coast 0.45608 -0.092549 -0.54917 0.64175 -0.92475 -0.82627 -1.4645 0.85514 0.56327 -1.0693 0.1715 -0.058738 0.94578 0.033741 -0.50093 -0.18019 0.42511 0.27126 -1.6809 0.012185 -0.31699 0.27964 0.089739 0.31378 0.1554 -1.2786 0.28704 0.45184 0.36345 0.092973 2.8897 -0.076929 -0.12463 -0.14557 0.48585 0.14327 -0.98928 -0.84743 -0.33147 -0.026424 -0.43789 0.75958 1.1765 -1.2459 -0.86592 0.6623 -0.17758 -0.20199 -0.038232 -0.80385
beat -1.5236 -0.26458 0.27174 0.82746 -0.098719 0.040697 -0.56075 1.149 -1.0156 0.46597 0.14546 -0.7258 -0.77743 -0.090818 -0.12601 -0.56871 0.41002 -1.1349 -1.3759 -0.023665 -1.1283 -0.079087 0.23578 0.28633 0.20833 -1.6574 0.35552 -0.48238 0.17717 -1.3363 2.3631 1.1649 0.39943 0.47287 -0.25937 -0.23877 0.077147 0.81082 0.49718 -1.1624 0.66559 0.030266 0.42841 -0.76773 0.90456 1.4282 -0.34382 -0.84619 0.35737 -0.35665
helped -0.11353 -0.17744 0.45337 -0.41261 0.0087383 -0.052646 -1.0313 0.2269 -0.085157 0.51145 0.096046 0.4117 -0.65134 -0.16605 -0.12995 0.03791 0.3008 -0.59848 -0.2057 -0.14756 0.42105 -0.015582 -0.22547 -0.61089 -0.26606 -1.6089 -0.070957 -1.105 0.26082 -0.12819 2.7455 0.72213 -0.46809 -0.62821 -0.02772 0.159 -0.83811 0.28604 0.45035 -0.70168 -0.44954 -0.0752 -0.024676 -0.51329 0.49967 0.20895 -0.042868 -0.24299 -0.1498 -0.1317
child 0.30459 0.40631 -0.37512 -1.2075 1.0473 1.579 -0.15254 -0.27604 1.0093 0.08583 0.17895 0.26302 0.2241 -0.39434 1.4092 -0.43509 -0.6516 0.10294 0.73823 0.20905 -0.1405 1.1462 -0.1672 0.5987 0.31977 -1.9205 -0.25067 -0.94027 0.33703 -0.20613 2.6765 0.28159 -0.37146 -0.80129 0.30049 0.57209 0.326 -0.4331 0.60803 -0.71701 -0.68058 0.080862 0.40396 0.24926 0.61058 -0.48516 0.12207 -1.1695 0.33096 0.46469
effort 0.70902 -0.60861 0.26447 -0.54556 -0.080056 0.15464 -0.53953 0.31852 0.74595 0.45002 -0.67944 -0.093416 -0.62557 0.16601 -0.34859 -0.53711 1.0038 -0.54608 0.14791 -0.37893 0.32426 0.047782 -0.71429 -1.0033 0.20843 -1.7756 0.12468 -0.61561 0.49403 -0.068333 3.1969 0.50705 -1.0984 -0.66999 -0.42717 0.33314 -0.5241 0.20927 -0.26731 -0.90293 -0.47239 -0.21518 -0.16108 -0.56691 -0.01505 -0.028093 0.19612 0.62921 -0.23875 0.1726
cooperation 0.67084 0.91844 -1.0584 0.89089 0.40297 -0.36832 0.56542 -0.45542 0.60426 -0.31957 0.66589 0.41654 -0.75119 0.44239 -0.71955 0.075859 0.47987 -0.33687 1.4577 0.27239 0.88178 0.19196 0.14783 -0.9529 0.033034 -1.0834 0.97918 -0.33296 -0.40744 0.27493 3.5156 1.1744 -0.98069 -0.87663 -0.62814 -0.52916 -1.1162 0.6044 -0.96873 0.62927 -0.70116 -0.74005 0.96412 -1.4866 0.37705 0.067336 -0.30688 1.6906 -0.25781 -0.16741
written -0.10274 0.44318 -0.62913 -0.55198 0.17975 0.89195 -0.7882 -0.6696 -0.7988 0.2288 -0.39812 1.3683 -0.15623 0.015956 1.0666 -0.8636 -0.22175 -0.73444 0.29179 -0.0076159 0.38245 0.42882 0.91511 0.19922 0.97812 -0.94606 -0.99391 -0.4051 -0.89268 -0.61873 2.8765 -1.7996 -0.018694 -0.42744 -0.12641 0.072925 0.87148 -0.27573 -0.51512 0.23708 0.87694 0.5183 -0.3854 -0.43282 -0.55922 0.053511 0.061995 0.23762 -0.53612 0.35509
mission 1.9144 0.40923 -0.31422 -0.6443 0.55513 -0.81588 -0.766 0.18716 0.94453 -1.0715 0.52092 0.20347 -0.36264 0.5649 -0.30487 -0.13143 0.080574 0.16483 -0.25986 0.45458 -0.40467 0.7947 -0.66128 -0.49532 0.31973 -1.1424 0.097268 -0.48496 -0.17357 0.29176 2.7318 -0.073546 -1.7509 -0.86062 -0.0093403 0.021347 -0.006449 -0.18159 -0.27718 0.10547 -0.30741 -0.48023 0.40922 -1.2402 -0.476 0.30602 0.32634 0.62645 -0.91152 0.42901
buy 0.76552 -0.12379 1.144 0.071116 0.69537 -0.25318 -1.4303 -0.64846 -0.17595 0.60268 0.10464 0.96283 0.35706 -0.45109 0.55292 1.1588 -0.13179 0.34544 0.018801 -1.1188 1.358 -0.11799 -0.39478 -0.11678 -0.92234 -1.4277 -0.38724 -0.15941 0.78802 -0.90019 2.5643 0.70629 -0.13151 1.1043 0.51428 -0.60614 -0.5123 -0.034909 0.45906 -0.97082 0.76554 0.0052619 1.0155 0.27476 0.28309 0.23979 -0.85404 0.36266 -0.17013 0.64426
joined -0.41022 0.014266 -0.2916 -0.37862 -0.28519 0.050711 -1.4538 0.51936 -0.92067 -0.78855 0.56038 0.24635 -0.85139 -0.052399 -0.41794 -0.51272 -0.0010679 0.31711 -0.79727 0.29399 0.34643 0.27709 0.39101 0.28832 -0.88024 -1.2874 0.60719 -0.71949 -1.2526 -0.032727 2.3104 0.33736 -0.3352 -0.41658 -0.15113 -0.17586 -0.14002 -0.065949 -0.082406 -0.20707 0.13021 -0.12528 -0.52263 -0.84746 0.060975 0.10301 -0.91196 -0.78798 -0.75317 -0.12795
tournament -0.88953 0.63058 -0.82473 1.7096 -0.44217 -0.64059 -0.062663 1.2849 -0.015872 -0.34241 0.183 -1.0086 -1.2333 0.11335 1.7202 0.010418 0.66763 0.14544 -1.7312 -0.13564 -0.59173 -0.30289 0.24262 0.40973 -0.25839 -0.97564 -0.26657 -0.40007 -1.1186 -0.49614 2.5761 1.0775 0.0091295 0.45583 0.32428 0.10288 0.72513 1.4971 -0.43629 -1.7964 -0.5283 -0.77145 0.15017 0.43971 -0.16645 0.42542 0.35469 -0.098881 -0.58181 -0.096291
olympic -0.92192 1.8964 -0.089096 1.8737 -0.205 -0.28065 -0.39691 0.23569 0.54298 -0.65655 0.4702 -0.55816 -0.97581 0.36171 1.6403 -0.03052 0.74846 0.56689 -1.3094 -1.0412 -0.081041 -0.033068 -0.59131 -0.42702 0.52491 -1.4647 -0.074441 -0.30602 -0.70057 -0.22948 1.7236 1.3049 -0.84754 -0.3397 -0.48505 0.10887 0.71109 1.2445 -1.0695 -0.45398 -0.32478 -0.37157 0.81534 -0.021454 0.39852 -0.10013 -0.58603 -0.1378 -0.033193 -0.83187
records -0.7431 0.32944 0.27683 0.42189 -0.57555 -0.071554 -1.1739 0.22748 1.0866 0.46412 0.37965 0.60285 -0.5996 0.035822 0.86084 -0.42616 -0.86164 -0.51118 -0.20983 -0.15976 0.36218 0.013198 0.75508 -0.26193 -0.52993 -0.85421 -1.717 -0.40772 -0.09149 -0.6998 2.7036 -1.064 0.18467 -0.40747 -0.11576 0.20715 0.83361 -0.75333 0.33722 -0.7898 0.18105 -1.0091 -0.16179 0.24737 -0.62759 -0.22021 -0.12645 -0.33641 -0.40344 -0.73523
heart 0.83107 0.89355 -0.15356 -0.62906 -0.21052 1.1233 0.36573 0.52539 0.84858 0.7195 0.3634 -0.42949 -0.25525 0.095809 -0.097476 0.60785 -0.61078 0.005744 -0.20188 0.39034 -0.53284 0.67998 0.041442 -0.063156 0.38967 -1.8203 -1.0337 0.40151 0.24797 -0.13607 2.9198 0.45867 0.31241 -0.23788 -0.27991 0.12734 0.92298 0.2459 1.3024 -0.22881 -0.36346 0.082996 -0.50646 0.18301 0.75422 0.65287 -0.12559 -0.75379 -0.33635 0.087592
award -1.3086 1.7375 -0.57947 0.39603 0.54224 0.41411 -0.6104 -0.65784 1.0299 0.58311 0.29289 0.76647 0.23736 0.26949 0.61541 -1.1809 0.84402 0.59988 -1.0476 -0.16932 0.69944 0.12318 -0.41059 -1.0214 0.023593 -1.3111 -1.7193 -1.2015 -1.9113 -0.5664 1.8896 0.4123 -0.36942 -0.74746 -0.22967 0.19631 0.52465 0.35923 0.045232 -1.1562 0.20787 0.55651 -0.8668 -0.8587 -1.3831 -0.33113 -0.46826 0.11572 -0.42546 0.45634
grand 0.12027 1.7076 -0.84847 1.3061 -0.1484 -0.22124 0.14696 1.3428 -0.62895 -0.25422 -0.64526 -0.35319 -1.3131 -0.026369 0.58856 -0.5184 0.063154 0.073899 -0.80355 -0.7691 0.65393 -0.56281 -0.81812 0.46678 -0.72681 -1.5922 -1.4048 -0.11259 -0.59497 -0.34315 1.8548 -0.26006 -0.65162 0.13924 0.99577 -0.51428 0.56132 0.69656 -0.38287 -0.045935 -0.32975 -0.35681 0.092544 0.088761 -0.78108 -0.035788 -0.36241 -1.0795 0.41262 -0.65425
rule -0.66363 -0.64151 -0.4977 -0.23455 -0.29071 0.074016 0.69276 0.033831 -0.85544 0.0099449 0.14174 0.10607 -0.61069 -0.19831 0.47243 0.69107 -0.16552 -0.84442 0.44601 0.48243 -0.39678 -0.35128 -0.56904 -0.36713 -0.27192 -2.2157 -0.36563 -0.75771 0.38559 0.73749 2.9505 -0.46838 -1.331 0.17992 -0.1094 -0.20298 0.25292 -0.26998 -0.83147 0.28015 -0.89313 0.24354 0.1725 0.94529 -1.1157 0.18465 -0.37275 -0.19556 -0.31604 -0.86618
sometimes 0.49702 0.015437 -0.61546 -0.75006 0.14033 0.5938 -0.048329 0.13934 -0.71462 0.17335 -0.2036 0.49305 0.41708 0.078533 0.21143 0.076777 -0.053277 -0.00097839 -0.073005 -1.1104 -0.43272 0.10309 0.87537 0.6274 0.6438 -1.3832 -0.66854 0.69158 0.8708 -0.28714 3.2935 -0.11399 0.46678 -0.66633 0.0087933 0.36988 -0.16624 0.10277 -0.56319 -0.057805 -0.04682 0.31407 0.039253 0.992 0.46411 -0.29936 0.097787 -0.34017 -0.10206 0.10146
mountain 0.44469 1.7411 0.24895 0.30172 -0.60967 -0.64624 -1.2097 -0.16842 0.44635 -1.2397 -0.42442 -0.92472 0.68919 -0.29421 -0.70245 0.65651 1.0121 0.66883 -1.3459 -0.31857 -0.94914 -0.022777 -0.0096754 0.71226 0.36824 -0.7096 -1.2219 0.77468 0.03788 -0.046706 2.3723 -0.80034 -0.76385 0.41145 0.78734 -0.17004 -0.9871 -0.62722 0.28548 0.024311 -0.56093 -0.044454 0.17004 -0.052555 0.32851 -0.4362 1.0471 -1.1037 0.0058918 -0.86151
railway 0.63914 0.59262 0.03767 -0.1139 -1.6267 0.11213 -1.1033 0.30824 -0.21158 -1.5644 0.22591 0.18713 -0.46444 -1.3151 -1.4961 0.44274 0.19703 1.1763 -0.63898 0.39762 1.6287 -1.2328 -1.0769 1.1461 0.44266 -1.1791 0.47002 0.47923 0.096261 -0.1279 2.3416 -0.4786 0.75393 0.34919 0.69899 -0.21417 0.62048 0.3327 -0.14384 1.5313 0.44883 -0.74194 -0.0036657 -0.38484 -0.85678 -0.049706 -0.44728 -0.23276 1.1301 -1.1121
weather -0.046177 0.19105 -0.0088775 0.33513 -1.5276 -1.3877 -0.90678 0.60365 0.7022 -0.75226 0.47992 -0.1758 0.67756 0.48472 0.33934 0.8612 -0.60056 -0.38939 -1.2988 -1.0344 -0.3619 0.40017 0.63314 -0.16999 1.0498 -0.40598 -0.78578 0.85598 1.5479 1.534 3.0251 0.32164 0.37154 -0.8246 -0.057963 0.13627 -0.096647 0.082712 0.0065931 0.034547 -0.62896 0.47067 0.72553 -0.10176 0.35302 0.34795 0.51501 0.20321 0.31264 0.93996
animals 1.2025 -0.69247 -0.75747 -0.55042 0.95651 0.88934 -0.67801 -1.3165 1.4368 -0.085537 0.70613 0.36381 1.4765 -0.34478 0.92034 0.35738 0.91837 0.218 -1.2499 -0.61928 -0.68601 0.016809 0.84583 -0.19514 0.68663 -0.52643 -0.47997 -0.3038 0.65057 -0.69852 2.4639 0.31924 0.16431 -0.87606 -0.22464 0.72498 0.30729 -0.037508 -0.30131 0.11963 -0.79685 -0.45074 0.71143 1.3426 1.4455 0.021383 -0.37745 -0.73051 0.019171 -0.37425
shark 1.0135 -0.40839 -0.79064 0.25665 -0.030741 0.52863 -0.65543 -0.45665 1.2548 -0.1706 0.15698 0.80643 1.0898 0.93303 0.17146 -0.20309 0.57221 0.10845 -2.2513 0.66156 -0.98 -0.44982 0.57944 -0.1831 0.22618 -0.83407 -0.071124 0.82311 0.22218 -0.66058 1.0786 -0.21995 0.81882 0.64377 -0.69963 0.42002 -0.030824 -0.79903 0.4401 -0.99521 -0.27295 0.061863 0.46772 0.8569 1.2219 -0.5549 0.40013 -0.31513 0.74027 0.40346
frog 0.61038 -0.20757 -0.71951 0.89304 0.32482 0.76564 0.1814 -0.33086 0.79173 -0.31664 0.011143 0.45412 1.5992 0.013494 -0.093646 0.19245 0.251 1.1277 -1.0897 -0.42909 -1.1327 -0.90465 0.5617 -0.058464 1.0007 -0.39017 -0.41665 0.73721 -0.53824 -0.95993 0.67929 -0.59053 0.13408 0.54273 -0.36615 0.014978 -0.2496 -0.81088 0.078905 -0.97552 -0.66394 -0.18508 -0.87174 0.30782 1.2839 -0.14884 0.62178 -1.509 0.14582 -0.31682
bulldog -1.0319 -0.41429 -0.66444 -0.25587 -0.13324 -0.089815 -0.60918 -0.34304 -0.17239 -0.20616 0.33914 0.48349 0.35203 -0.63645 -0.46636 -0.33304 0.22024 1.2805 -1.1179 -0.17852 -1.1339 -0.087554 -0.64767 0.078599 0.24306 -0.95916 -0.53996 0.29983 -0.074201 -0.45594 -0.32958 0.21382 -0.22546 0.59428 0.14918 0.43468 -0.025554 -0.56008 -0.40995 -0.84948 0.66557 -0.013601 -0.91376 0.32499 0.74411 -0.11017 0.25378 0.015637 -0.051967 -0.013165
doggie 0.65512 -0.35333 -0.50276 -0.17685 0.19791 -0.51552 0.29378 -0.74793 1.0956 0.18053 -0.33153 0.27453 0.16034 0.10512 0.89648 0.22888 -0.88632 1.0821 0.93666 -0.44822 -0.06391 0.34504 -0.52656 0.40283 0.21384 0.36091 -0.91573 0.38868 0.29142 -0.65479 -0.47612 0.89581 -0.87331 1.4315 0.45065 1.1173 0.7365 0.06931 1.0196 0.34911 -0.12905 0.41915 -0.91541 0.74351 0.51604 0.4796 0.85808 -0.47421 0.2724 0.014744
dogfish 1.0944 -1.1156 -1.2685 0.97353 0.3229 -0.57081 0.15407 -0.95746 -0.12232 -0.37854 0.84328 1.0369 0.54029 1.1187 -0.31639 -0.096358 0.14573 1.3971 -0.97018 -0.46703 -1.596 -0.7405 -0.26771 0.0299 -0.67859 0.33506 0.72497 1.231 -0.9772 -0.32023 -0.38041 0.25335 -0.26958 1.0134 -0.25149 0.11739 -0.83935 -0.30887 0.937 0.40246 -0.84596 0.90194 -0.5919 1.1094 0.00086783 -0.38222 0.21634 -0.16478 0.4739 -0.14821
sea 1.3549 0.96469 -0.65964 0.3297 0.025316 -0.39186 -0.45001 0.089164 0.59136 -1.0542 0.25812 0.74352 1.2827 0.52466 -0.42253 0.11421 0.75232 0.33939 -2.3079 0.034455 -0.095369 -0.074015 0.92792 -0.64279 0.59323 -1.0927 0.26985 0.94022 0.96001 0.092628 3.0371 -0.25415 -0.097124 0.48477 -0.004144 0.058441 -0.70393 -0.85605 -0.34921 0.57608 -0.34497 -0.09798 1.5362 -0.42353 -0.10344 -0.063314 -0.078199 -0.54478 -0.20832 -0.97593
annual -0.37791 1.0773 -0.66116 -0.11279 0.45041 -0.56139 -0.58576 -0.93223 1.4882 -0.06564 -0.44609 -0.98404 0.88088 -0.18864 1.1978 -0.67449 -0.02678 -0.012949 -1.1207 -0.34115 1.4087 -1.3492 -0.24899 -0.54433 -0.68191 -0.55549 -0.66159 -0.35694 -1.1895 0.62435 3.2609 1.2453 -0.22373 0.40704 -0.43906 -0.44327 0.13702 0.0054712 0.12888 -0.61378 -1.0401 -0.12735 -0.79365 -0.45138 -0.33485 -0.19037 0.39579 0.53896 -0.35373 0.50487
whales 0.79297 -0.37039 0.074796 -0.85253 0.26327 0.58204 -1.2166 -0.54774 1.6626 -0.16745 0.62645 0.17258 2.1347 1.295 0.35784 0.07349 1.1047 -0.41626 -2.3218 0.55182 -0.59795 -0.31405 0.96338 -0.41247 1.286 -0.70917 0.23026 0.037252 0.47488 -1.3307 0.71358 0.14133 0.084819 0.17584 -0.13928 -0.46907 0.096704 -0.96816 -0.2485 0.26961 -1.4141 -0.68447 1.748 0.66951 0.76065 -0.83981 0.27442 0.028131 -0.36084 -0.13133
cosmetic 0.67898 -0.61033 -1.183 -0.16052 -0.7682 1.4919 0.25239 -0.66761 0.17179 0.6927 0.37329 -0.45979 0.69523 0.37841 -0.11913 0.86512 -1.0217 -0.10494 0.87108 -0.26037 0.47042 0.25522 -0.56506 -0.7856 -0.89652 -0.35735 -1.7195 0.087077 0.37577 -0.31278 1.276 0.57054 -0.022511 -0.051327 0.30431 0.79631 0.7388 1.568 0.45662 -0.25257 -0.38347 0.3126 0.37162 0.68094 0.63854 0.20874 -0.034372 1.1237 -0.080773 0.80784
benign 1.0643 -0.095017 -0.40054 -0.38029 0.34483 0.48849 0.67749 -0.42748 -0.56262 0.78672 0.46391 0.023351 0.82795 0.40339 -0.012882 1.0792 -0.70103 -0.81131 0.28938 0.63495 -0.95285 -0.41238 0.13595 -0.63893 0.10195 0.049666 -0.44207 0.88361 1.0724 0.90761 1.2401 -0.34887 0.60218 -0.93636 -0.8415 -0.031754 0.38619 0.8246 -0.086267 -0.96191 -0.58028 -0.55053 0.07056 0.98427 0.99898 -0.49755 -0.058678 0.046776 0.96676 0.7131
bicycles -0.049419 -0.58523 0.75502 -0.34779 -0.73904 0.23757 -0.847 -1.2549 0.46297 -0.48686 0.46037 -0.46153 -0.21462 -0.6341 0.37845 0.014 -0.58551 1.6383 0.090869 -2.176 0.69281 -0.22469 -0.70046 0.74477 0.57278 0.1193 -0.18199 -0.079261 0.80527 -0.33622 0.85415 1.074 -0.23141 0.66449 0.54439 0.49666 0.25903 0.45297 -0.7415 1.0447 -0.14969 -0.43179 0.58743 0.51914 0.41499 -0.64873 -0.1304 -1.4109 0.40651 -1.0362
noticeable 0.1774 0.084153 -0.38379 -0.43321 -0.0015524 0.72097 0.14276 0.16836 -0.15529 0.64867 0.47349 -0.63587 0.37805 -0.5288 0.12395 0.45243 -0.12239 -0.47166 0.088272 -0.98282 -0.6442 -0.70848 -0.28868 -0.3725 0.80821 0.1942 -0.94448 1.1186 0.90517 0.53053 1.5259 0.63979 1.2326 -0.88523 0.13777 0.057188 0.12829 0.37002 -0.46797 0.19757 -0.70322 0.41997 -0.78031 -0.097369 -0.10343 -0.31893 0.45573 0.68282 0.062772 -0.0457
defy -0.53435 -0.70409 0.091492 -0.75066 -0.24594 -0.73018 0.69218 0.45059 -0.17107 0.44962 0.039008 -0.018939 0.16356 0.1406 -0.058743 1.044 0.46397 -0.82781 0.36585 -0.92035 -0.090632 0.34502 -0.62051 0.17217 0.71083 -1.1988 -0.47516 -0.54158 0.35997 0.44841 0.60891 0.025063 -1.5103 -0.55125 -0.036863 -0.58709 0.37792 -0.86348 -1.0051 0.065868 -0.0081943 -0.039797 0.44483 0.59812 0.55542 0.6804 0.47333 0.79699 0.030969 -0.51446
instructors -0.50182 -0.027823 0.016767 -0.99183 -0.30527 -0.88365 -0.16503 0.19272 0.098957 -0.67877 0.64685 -0.16077 0.30731 0.38182 -0.34492 -0.42983 -0.19089 1.2251 -0.25611 -0.73817 -0.026064 1.2759 0.17462 0.54439 -0.06757 -0.58042 -0.1284 -1.3465 -0.71073 -0.067575 1.1803 0.65923 -0.68949 -0.47613 1.1825 0.74548 0.037925 0.23225 -0.086441 0.51769 0.18734 -0.16287 0.9527 0.88397 0.78476 -1.0623 0.85449 0.67254 -1.0402 0.48166
shallow 0.83755 0.80554 -0.3245 0.039648 -0.23391 0.42081 -0.077836 0.83258 0.043961 -0.4059 -0.51658 0.2947 1.1186 1.3419 -0.88685 0.10218 1.2994 -0.026978 -0.9123 -0.307 -0.53013 0.2063 1.2073 -0.16717 0.75166 0.20164 0.19385 1.5082 1.3571 0.24179 2.3927 -0.81772 0.72659 -0.028138 -0.40238 0.75526 -0.70057 0.2793 0.63791 -0.21286 -0.15331 -0.15084 0.63515 0.99531 -0.6028 -0.13218 0.30314 -0.4678 0.24769 -0.44875
novelist -0.7466 0.89361 -0.65631 -0.72207 0.15132 0.85651 -1.1188 -0.50128 -0.61416 0.95898 -0.50466 0.86401 0.062999 0.35823 1.503 -1.4243 0.49943 0.034752 -0.42695 1.358 0.14639 1.0415 -0.0056049 0.51305 1.4301 -1.4549 -0.96769 -1.1155 -0.53516 0.83433 0.28079 -1.6414 0.21213 0.097073 -0.096278 0.10808 -1.245 0.54527 0.00024636 -0.47114 0.77137 1.5834 0.4745 -0.7545 -0.26539 0.091785 -0.06065 -0.29798 -0.015247 0.10823
locomotives 0.39713 0.05312 0.93218 -0.99135 -1.6378 0.54796 -0.70934 -0.16905 -1.0727 -0.85052 0.59226 1.2381 -0.59362 0.033683 -1.1709 -0.32445 -0.52136 1.4349 -0.5245 -1.5361 0.52791 -1.3626 0.15876 0.31038 0.012359 0.098282 -0.34529 -0.24136 0.46645 0.81667 1.673 -0.40334 0.74062 0.95046 2.0272 0.079384 1.109 0.70086 -0.90716 0.94306 0.28861 -1.4516 0.71976 0.29462 -0.28896 0.39584 -0.59146 -0.47285 0.47092 -0.25914
accuracy -0.58192 -0.18463 0.79214 -0.18191 0.31717 0.20969 0.75312 -0.24195 1.2696 0.30641 0.16389 -0.38792 -0.31755 -0.91558 -0.73472 0.049493 -0.065608 -0.60797 -0.56861 -0.89845 -0.48581 0.59997 0.4223 -0.91217 1.2376 -0.70564 -1.4262 -0.11114 0.70532 0.25819 1.7108 -0.022099 0.25027 -0.96823 0.87831 -0.13833 0.51962 0.94384 -0.45394 0.24607 0.72689 -0.081865 0.27368 0.85187 -0.90199 -0.4679 1.0664 1.8386 0.31568 0.10438
gravity 0.44869 0.30792 0.51963 -0.23368 -0.080783 0.33851 1.319 -0.66441 0.46612 0.56452 0.77622 0.54261 -0.56125 0.38692 -0.57697 0.8267 0.69314 0.25726 -1.0666 -1.1321 -0.028799 0.011453 -0.11601 -0.81817 1.064 -0.63807 -0.5906 0.42673 0.6143 0.39035 1.7772 -0.2461 -0.42136 -1.0317 -0.1296 -0.30048 0.13189 -0.41703 0.23153 0.68123 -0.25412 -0.10031 -0.0038144 0.47941 -0.59242 -0.40575 1.4054 -0.092394 -0.014985 -0.29821
physics -0.76028 1.3048 -0.086416 -0.092512 -0.19359 0.10563 0.70074 -0.97941 -0.57269 0.68583 0.91511 0.28773 -0.50195 0.68386 -0.11504 0.07918 0.28243 1.404 -1.0323 -0.1534 0.9346 0.25864 0.53605 -0.44312 0.81973 -1.1146 -0.71439 -0.78889 -1.0154 0.40448 1.5148 -1.1208 -0.94428 -2.2462 0.20003 -0.1727 -0.20429 1.6377 1.3617 1.0111 0.21541 -0.50015 0.26245 0.96734 -0.35057 0.54879 1.5572 0.76885 -0.54687 -0.2338
biophysics -0.54596 0.67754 -1.0267 0.53365 0.22034 0.64902 0.91813 -0.57561 0.60437 -0.31991 1.2568 -0.15497 -0.1657 0.28022 -0.36851 -0.0019312 -0.84663 0.96534 -0.10427 0.31457 1.4177 -0.032832 0.57439 -0.088523 -0.61643 -0.42777 0.080379 -0.22508 -0.90795 0.013763 -0.20611 -0.89398 -0.27944 -1.955 -0.24936 0.032938 -1.1324 1.4245 1.781 0.98229 0.19645 -0.68874 0.081864 0.51597 0.2131 -0.3463 1.8733 -0.028331 -0.75124 -0.13376
climb 0.56131 0.70493 1.3061 -0.81082 -0.20332 -0.82581 -0.43661 0.24457 0.015752 0.03522 -0.2122 -0.58499 -0.4484 -0.1087 0.23078 0.41276 0.7161 -0.45608 -1.0891 -1.0322 -0.13546 -0.32963 -0.24357 -0.16965 0.83918 -0.2935 -0.33241 0.20348 0.057276 0.42908 2.0318 0.52087 0.033305 0.72366 0.6403 -0.87142 -0.41357 -0.017222 0.22565 -0.88541 -0.97866 -0.56145 0.67011 0.010228 0.075269 -1.3355 1.6818 -1.0072 0.6146 -0.69777
underwater 0.88043 0.29506 0.61971 0.58747 -0.92033 -0.15452 -0.66025 0.18283 0.74842 -0.041743 0.60169 0.18599 0.68444 1.5917 -0.38967 0.27951 0.54061 0.79598 -1.4747 -0.45079 0.21244 0.7873 -0.46554 -0.80553 1.1601 -0.17021 -0.45573 0.24745 0.49798 -0.30557 1.6131 -0.651 0.04256 -0.85848 -0.041447 1.2484 0.18527 -0.15512 0.24335 -0.10616 -0.056102 -0.52736 0.99607 0.72884 -0.13831 -0.75185 0.8073 -0.090908 -0.13231 -0.73986
whitewater 1.1027 1.0729 -0.41961 1.6661 -1.3539 0.63794 -0.053701 0.56945 0.29383 -0.72874 -2.0717 0.8221 -0.58645 0.064372 0.72379 -0.75792 0.17703 0.54271 0.38035 -0.63144 0.92447 -0.015769 0.60724 -0.35847 -0.20345 -1.4501 -0.00063305 0.38018 -0.4733 -0.26938 0.19014 -1.0812 -0.58818 -0.84265 -0.0048453 -0.56638 -1.4931 -0.015846 0.50124 -1.0801 -0.95635 -0.44408 0.51683 1.422 -0.44805 -1.5025 0.42135 -0.06065 0.19589 -0.015856
pioneering 0.034682 0.26244 -0.36091 -0.28389 -0.6286 0.77494 -1.2915 -0.64472 0.68151 0.99924 0.63622 0.090019 0.16177 0.99278 -0.73667 -0.66689 0.03213 0.39842 -0.26888 0.285 0.37469 0.63388 -0.90993 -0.33654 0.50483 -0.68326 -1.0756 -1.2346 -0.30932 0.54782 1.2971 -0.74516 -0.32443 -0.78864 0.015068 0.15578 -0.3283 0.73427 -0.12593 0.072406 0.10619 -0.30064 -0.11986 0.064548 0.51301 -0.1987 0.098054 0.029325 -0.45488 0.43035
funk -0.84576 -0.13679 -0.29742 0.055269 -1.1018 0.44099 -0.41955 0.053029 -0.97129 1.3983 0.0572 0.1002 -1.205 0.94773 -0.63883 -0.30111 0.50757 -0.42402 -0.18224 -0.62228 -0.6294 0.66439 0.28927 0.27179 -0.043224 0.30172 -1.6506 -0.18704 0.11431 0.075188 1.6649 -0.98792 0.12688 0.81666 0.23122 -0.5774 -0.30856 -0.59293 0.91733 0.14052 -0.22386 0.05262 -0.51171 -0.34979 0.47943 0.4994 0.68458 -0.866 -0.71794 0.1587
jeep 0.070654 -0.10763 1.2205 -0.084328 -0.011799 -0.080501 -1.6103 -0.37188 0.33981 -0.69041 0.3099 -0.62108 -1.086 -0.025444 -0.44588 0.009562 -0.76768 1.6334 -0.55921 -1.1915 -0.080618 0.45061 -0.99471 0.063268 -0.10476 -0.84037 -0.97541 0.99803 1.0922 -0.44413 0.3023 0.092453 -1.0373 0.94908 1.2922 0.097418 0.036586 -0.97651 -0.55844 0.7316 -0.17451 -0.68353 -0.28167 -0.79846 -0.063409 -0.87085 -0.12684 -0.050918 0.51835 -0.95003
email 0.90512 0.13008 1.0917 0.52514 -0.21762 -0.22288 -0.69978 -0.60544 0.80407 -0.31514 -0.34773 1.3731 0.40959 -0.48736 0.028711 -0.81938 -1.6978 -0.87075 0.69163 0.12649 0.44578 -0.2657 0.89769 0.77593 0.84299 -0.50451 0.87303 -1.0352 -0.19645 -0.10229 1.6171 -0.327 -0.11742 -0.60309 -1.11 0.01643 -0.27229 -0.58028 -0.411 0.028446 2.2875 0.069924 -0.73935 1.0227 0.35522 -0.21412 0.45245 0.62759 0.34694 0.46287
charismatic 0.088363 0.49875 -0.29467 -0.33892 1.3316 0.51514 -0.31732 -0.24743 -0.92231 1.4115 0.049956 -0.41588 -0.077849 0.65667 -0.43661 -0.4587 0.39617 0.76786 -0.065368 -0.009552 -1.5358 0.56157 -1.0814 0.18171 0.18429 -1.1089 -0.13283 -0.21373 -0.58297 1.2448 0.93843 -0.050993 -0.38225 0.035006 0.17804 -0.34426 -0.38328 0.49531 -0.71445 -0.46562 -0.20832 0.60315 -1.4885 0.53984 0.43787 -0.085371 -1.0068 -0.32734 0.027272 -0.0056757
vitamin 1.1275 0.63714 0.22277 -0.86621 0.061713 0.157 1.5917 -0.77908 1.7234 1.518 0.34214 0.59252 0.26659 -1.8426 -0.39947 0.63193 0.08846 0.25016 0.3229 -0.35612 -0.26285 -0.47869 2.4971 -0.15211 -1.2128 -0.095349 -0.54188 0.12306 -0.080129 0.82924 1.1142 0.070724 0.28091 0.021991 1.6304 -0.1515 0.64901 0.92572 0.73209 -0.10855 1.0108 -0.49741 -0.17501 0.23582 1.7947 0.39509 -0.18047 -0.075528 0.19616 0.96991
assignments 0.18193 -0.15878 -0.57112 -0.64528 -0.36362 -0.42993 -0.23097 0.41892 0.46937 -1.2116 -0.48054 0.34209 -0.31276 0.41788 0.0034293 -0.96212 -0.4767 0.2498 0.51972 -0.6097 0.74796 -0.10604 0.24088 0.46135 -0.47973 -0.47129 -0.16505 -0.51366 0.052553 0.077531 1.7231 0.68686 -0.0082726 -0.85043 0.59772 1.0977 -0.20346 0.66694 -0.72089 -0.010946 -0.10734 -0.017842 0.18013 0.61315 -0.89493 -0.9546 0.81015 0.96385 -0.41033 1.0471
cognitive 0.46449 0.070091 -0.28368 -0.18812 -0.43049 1.1469 1.2461 -1.1882 -0.31175 0.7683 1.0454 0.095332 -0.22781 -0.74337 -0.4866 -0.12335 -0.77705 0.45556 0.39162 -0.29489 -0.73266 0.52838 -0.26575 -0.62023 1.0782 0.26256 -0.62297 -1.2645 -0.59543 0.54933 2.0055 0.21783 0.35651 -2.7495 0.20978 0.50393 -0.22696 0.28763 1.2632 0.61941 -0.49274 -0.38863 -0.39409 1.2075 0.21141 -0.092095 1.8933 1.0429 -0.060496 0.89706
atlas 0.90193 0.32419 0.31279 0.71378 -0.56387 -0.12687 -0.72701 -0.88575 0.32877 0.50601 0.80455 0.39373 -0.26584 -0.55511 -0.82242 -0.19885 -0.22368 0.44722 -1.1084 0.56213 -0.62125 -0.38415 0.30434 -0.087867 -0.18383 -0.52281 -0.99531 0.36209 -0.25999 -1.0373 0.64923 -0.25903 -0.30275 -0.18722 -0.056885 -0.27781 -0.67887 0.31263 0.30488 -0.2068 1.2694 -0.26216 0.084673 -1.1804 -0.20571 1.0267 0.82565 0.45522 -0.032251 -0.2577
rabbit 0.53049 -0.63657 -0.53314 -0.37542 0.28821 1.2374 -0.47467 -1.2037 0.58209 -0.55149 -0.2719 0.70193 0.74694 0.34327 0.65301 0.54077 0.66454 0.47677 -1.0837 0.12478 -0.15093 -0.66961 0.55866 0.60741 0.70239 -0.91675 -0.92081 0.59262 0.0070694 -0.95443 0.69853 -0.13292 -0.061585 1.206 -0.58842 0.43482 -0.19392 -0.19351 -0.07301 -0.85527 0.32885 0.57285 -0.57111 0.10893 1.0902 -0.028394 0.78458 -0.97332 0.36124 -0.056677
genome 1.6251 -0.57519 0.36728 0.85287 1.0589 1.0963 -0.41362 -1.8025 2.0348 0.19298 0.74937 -0.34662 0.4021 0.29312 -0.09397 0.015639 0.011231 -0.15495 0.079576 0.65303 -0.81888 -1.2589 0.73164 -0.33597 0.98346 0.048151 -0.78343 -0.34454 -0.92877 -1.2392 1.2221 -1.0004 -0.75518 -0.4247 -0.50554 -0.27013 -0.2227 1.2674 0.43939 0.6762 0.11513 -0.59311 -0.84883 0.071465 -0.29655 0.69998 1.5518 0.782 -0.93811 0.056819
passive 0.17252 0.1239 0.50418 -0.49585 0.16655 0.49416 0.8955 -0.43951 -0.4243 0.73436 0.89411 -0.012412 0.86919 0.81026 -0.93238 0.24103 0.077307 0.4449 -0.27524 -0.77186 -0.37438 0.094795 -0.5363 0.025309 -0.052845 -0.56469 0.26582 0.10484 0.8531 0.58047 1.5916 -0.043035 0.092363 -1.3281 -0.67963 -0.04754 0.33456 -0.38687 -0.43537 -0.52811 0.73436 -0.14156 0.16794 1.569 0.13758 -1.1909 0.14232 0.18586 0.23521 0.824
bugs 1.2226 -1.0383 0.40102 0.41347 -0.078656 0.39777 -0.26213 -1.1086 0.019442 -0.20025 -0.40249 1.2663 0.19918 0.024063 1.1872 0.71645 -0.20059 0.56387 -0.62823 -0.50906 -0.14365 -0.68218 0.70509 0.25232 0.94661 -0.48144 -0.3211 0.011802 0.6823 -0.84979 0.96979 0.06336 -0.055391 -0.19474 -0.29679 1.1335 -0.14021 -0.52997 -0.21141 -0.56279 -0.21806 0.46777 -0.59766 0.74254 1.4261 0.37909 1.1001 -0.7467 0.17113 0.04632
frightened 0.76313 -1.356 0.56817 -1.335 0.60006 -0.35785 -0.56363 1.0392 -0.56901 -0.21327 -0.020106 -0.56914 0.58934 -0.1932 0.68453 0.42755 -0.05877 0.32051 0.17555 -0.35143 -0.67549 1.3142 0.078177 0.88798 1.2341 -0.99167 -0.3693 0.41821 0.78726 -0.27416 0.90234 0.71221 0.61161 -0.41874 -0.3802 0.26318 -0.32825 -1.0059 -0.034908 -0.50852 -0.53521 0.32687 0.37933 0.20463 0.85644 -0.48422 -0.45577 -0.59583 0.18273 -0.29583
haunted 1.2308 0.61785 -0.37545 -0.081203 0.20044 0.0050462 -0.54165 0.17428 -0.4627 0.081291 -1.1364 0.10013 -0.40366 0.053521 1.0529 0.05967 0.024412 0.581 -0.34193 0.60655 -0.22559 0.45068 -0.46085 0.53214 0.34517 -0.54111 -1.2842 0.58002 0.8056 0.20246 0.56371 -0.32968 0.69252 -0.80409 -0.23245 0.87903 -0.14125 -0.78247 -0.42086 -0.95372 -0.73254 -0.29696 -0.068067 0.43739 0.20308 0.73254 -0.37211 -1.0968 0.33501 -0.66859
mediators 1.0174 -0.13593 -0.91893 -0.36937 -0.33835 -0.068617 -0.35032 1.2454 -0.50593 0.044947 0.19146 0.35056 -0.379 1.1499 -0.43677 0.52816 1.0411 -1.2567 0.65771 -0.35683 0.3585 1.0959 0.69269 0.30235 -0.62799 0.0042772 1.198 -0.043648 -0.93326 0.34509 1.3198 -0.14191 -1.3947 -0.33215 0.41482 -0.48387 -0.56313 -0.94636 -0.010535 0.20155 -0.15082 0.15429 0.26065 -0.6969 0.55885 0.4101 0.064467 1.5536 -1.2115 -0.82142
recycling -0.30633 0.15 0.59478 -0.30529 -0.45701 -0.073791 -0.80437 -1.272 1.4178 0.53466 0.01165 0.12373 0.44497 0.27495 -0.20143 0.21233 0.3864 1.0328 0.65074 -0.38194 1.3181 -0.92767 -0.20711 -0.47823 -0.34106 -0.41793 -0.034656 0.51503 1.3371 -0.35233 1.1832 0.31819 -0.47023 -0.84944 -0.39878 0.92622 0.35585 0.60185 0.88726 0.52006 0.085399 -1.3932 0.26231 0.38492 0.58824 0.26096 -0.51562 0.44707 1.1045 -0.13601
screenwriter -0.6078 0.093889 -0.25093 -0.58534 -0.063179 0.89484 -1.2278 -0.54616 -0.52547 1.1155 -0.042909 1.1246 -0.14767 0.98988 1.2372 -0.92269 1.1522 0.36224 -0.33896 0.88542 0.59927 0.94767 0.077805 0.63001 0.78602 -0.65405 -0.17905 -0.78802 -0.43487 -0.084957 0.34826 -1.4114 0.45971 -0.36266 0.081502 0.40204 -0.46152 0.27553 0.01459 -0.55761 0.46533 1.5738 0.05656 -1.2701 -0.63242 -0.57111 0.12775 -0.21855 -0.73515 1.2368
movies 0.11455 0.065065 0.28519 -0.17229 -0.39327 0.0080943 -0.48165 -1.5716 -0.17068 1.723 -0.71525 0.78738 -0.13594 0.88042 1.7368 -0.02498 0.18193 0.64291 -0.5424 0.045482 1.0286 0.67105 0.78415 1.036 0.29029 -0.96087 -1.6743 -0.26859 0.40321 -1.0013 2.4088 0.45553 0.54342 -0.50339 -0.11549 0.60122 -0.10831 -0.4685 -1.4051 -0.8593 -0.183 1.1568 0.10774 -0.10742 -0.56539 0.2745 0.17375 -0.85631 -0.67384 0.65348
tourism 0.28602 0.54286 -0.59948 1.1769 0.0069245 -0.79151 -1.1003 -1.1512 1.1455 0.013485 0.35678 -0.10861 0.68414 0.13029 0.25326 0.38409 0.57917 0.094085 0.22957 0.61928 1.0403 -0.24678 -1.0218 -0.14704 0.17061 -0.60849 -0.28604 -0.51266 -0.2097 0.74889 2.5938 1.3578 0.35971 -0.27929 -0.37711 0.22681 -0.96332 0.035583 -0.10925 0.66461 -1.4367 0.55789 0.44921 -0.80149 0.33137 -0.35518 -1.0348 0.43888 1.3779 0.15491
engineering -0.30847 0.23461 0.11819 0.50325 -0.4622 0.33465 -0.24591 -0.90292 0.39837 -0.3622 1.0792 0.22552 -0.60442 -0.30231 -1.41 -0.22967 -0.075232 1.8487 -0.23882 -0.21088 1.3641 0.4565 -0.75138 -1.007 -0.029306 -0.94489 -0.86208 -1.4729 -0.98162 0.25306 2.6589 -0.48034 0.020104 -1.063 0.71672 0.5565 -0.42515 1.3095 1.4427 0.51156 -0.022319 -1.0668 0.39002 0.16765 0.045271 0.2151 0.49155 0.78136 -0.31409 0.05833
wind 0.20465 0.13957 0.61922 -0.11125 -1.2909 0.041453 -0.0071437 0.50111 0.30579 0.53658 -0.096206 0.051769 0.585 0.39943 -0.73886 -0.018087 0.57525 0.46354 -1.4922 -1.8647 0.032416 -0.087108 0.34167 -0.82142 1.4041 -0.50637 -0.41899 0.40804 0.70017 0.21769 2.9612 -0.02481 0.25098 -0.034836 -0.38115 -0.4815 -0.020089 -0.21353 0.7775 0.10707 -0.42439 0.12891 0.1161 -0.078719 -0.17193 0.42985 0.29011 -0.96799 -0.53717 0.15817
downtown 0.49876 0.91765 0.021228 -0.080879 -0.16061 -1.3877 -1.2412 0.024671 -0.34786 0.13052 -1.0413 -1.955 -0.16418 -0.34646 -0.6252 0.18056 -0.049121 0.72253 -0.3589 -0.084419 1.0581 0.43482 -1.6209 0.86598 -0.68992 -1.0302 0.066404 1.1695 0.68813 -1.2264 2.3103 0.33823 0.39374 -1.0085 -0.1614 -0.10685 0.25896 -0.18337 0.53453 1.2057 -0.6369 0.18478 -0.1405 -0.39346 -0.29358 0.70879 -0.62657 -1.1711 -0.036983 -0.12052
reality 0.23819 0.31822 -0.18805 0.31089 0.33036 0.41263 0.21203 -0.4079 -0.25123 0.58626 0.071766 0.29878 -0.68396 0.71302 0.7529 0.51363 0.13182 0.29878 -0.0095056 0.019721 0.057935 0.87071 0.077444 0.58858 0.84735 -1.0869 -1.4946 0.19174 1.0062 0.13073 2.4707 0.31848 -0.19316 -1.1477 -0.65734 0.20907 -0.37233 -0.39434 -0.78052 -0.88327 -0.16719 -0.10074 -0.093266 0.1168 -0.75072 0.13433 0.48334 0.10333 0.18984 0.51565
flavor 0.04159 0.21264 -1.7687 0.39173 1.2616 0.39018 0.28036 -0.024703 0.11334 1.4677 0.32248 -0.064246 1.441 0.025721 -0.44124 0.5082 0.048239 0.29337 0.086239 -1.3485 -0.64776 0.063737 1.0154 0.21879 -0.25505 0.031765 -1.1542 1.2905 1.3793 0.085279 2.0951 0.24779 -0.15485 0.26708 0.84076 -0.098226 -1.2738 0.7644 0.53102 -0.59604 0.60445 0.51343 -0.44165 -0.49999 0.8429 1.5415 0.63213 0.77494 -0.44315 0.57494
barnacled -0.15733 0.10875 -0.050366 -0.59779 -0.050193 0.41151 0.30233 0.17951 0.27992 0.12045 -0.3051 0.13463 0.07478 0.21292 -1.1362 -0.09966 0.16803 0.098205 0.66145 -0.033983 -0.86211 -0.086538 0.096553 -0.31305 0.32211 0.72785 0.10749 0.83913 0.56882 -0.13477 -1.0634 0.36604 0.48898 0.21966 -0.10515 0.47893 -0.62868 -0.074868 -0.16891 0.073462 0.16639 -0.70746 -0.55753 0.68047 0.21838 0.064916 0.62879 0.33174 -0.49131 -0.70537
automate 1.1037 -1.7181 0.11014 0.34319 -0.61323 -0.24336 0.43621 -0.14748 0.94783 0.18986 0.12345 0.59258 0.14375 0.05608 -0.31499 -0.21496 -0.49184 0.082729 1.7606 -0.82162 1.0523 -0.76483 -0.69873 0.12575 0.49246 0.8488 -0.34351 -1.3143 0.78523 -0.69667 1.2544 -0.018579 -0.31926 -0.29351 -0.18113 1.1083 -0.2334 0.61482 0.28264 0.30179 0.23534 -0.85593 0.12863 0.56969 -0.067922 -0.15883 1.4813 0.60603 -0.31521 0.81426
paragon -0.28576 -0.11683 -0.46532 0.83642 0.40221 -0.40688 0.12983 -1.121 0.050353 0.84124 0.20102 0.55174 -0.51831 -0.17399 -0.91645 0.59826 -0.2573 0.69324 0.28031 0.054733 0.6165 0.42846 -1.1139 -0.51325 -0.49296 0.30532 -0.33384 0.19786 0.59855 -0.068166 0.054375 0.023448 0.12725 0.24457 -0.056461 -0.3037 -0.060923 -0.11909 -0.15068 0.31623 0.12848 -0.66113 -0.35423 0.72707 -0.59944 0.30212 -0.67596 -0.41762 0.52994 -0.26412
wildflowers -0.1676 0.88037 -0.89593 0.1536 -0.45984 -0.2201 -1.1964 -1.0267 0.3227 -0.11505 -0.57353 -0.30756 1.4572 -0.71343 0.63971 0.11881 0.69413 -0.23311 -0.22068 -0.91223 -0.94933 -0.44544 0.60011 -0.30505 0.88766 1.1095 -0.19953 0.6954 0.8839 -0.56813 0.14802 0.089696 -0.10393 -0.66736 -0.35431 0.52463 -1.1649 0.11054 -0.54593 -0.11603 -0.63285 -0.16429 -0.031632 -0.18112 1.3018 0.12955 0.78431 -1.2379 -0.70996 -0.49306
horticulture -1.062 0.46474 -1.7804 0.29512 -0.21546 -0.67685 -0.71604 -1.8059 0.60387 -0.10131 0.087985 -0.0051278 0.92584 -0.98855 0.45333 0.17875 0.3452 1.6631 0.08245 0.32378 1.0195 -0.31645 -0.32469 -0.38918 0.48491 0.30938 0.42413 -0.084574 -0.058572 0.52194 0.28053 -0.023296 0.097973 -0.78895 -0.34111 0.64119 -0.87923 1.6155 0.47081 0.71239 -0.59905 -0.62003 0.19833 0.1423 1.2113 0.38648 0.12003 0.49693 0.48875 0.27129
thunderous -0.095676 -0.35326 0.32965 -0.11423 -0.23195 -0.22832 0.58856 1.2566 -0.33164 1.1478 -1.0288 -1.3132 0.25684 0.72379 -0.42923 -0.75512 -0.018468 0.059928 -1.465 -1.023 0.26229 0.64205 -0.88362 -1.2307 1.3838 -0.39167 -0.21531 0.96808 -0.17672 -0.39133 0.66046 0.50754 0.35597 0.40459 -0.30007 0.30768 0.75484 -0.84553 0.028224 0.67442 -0.16559 1.2171 -1.6153 -0.30533 -0.1449 0.37461 0.44442 0.50596 -0.71573 -0.95898
alphabetical -0.078136 0.11587 -0.63392 -0.079507 0.6752 -0.53926 0.14069 -0.092912 -0.17503 -0.70124 -0.20018 0.84142 0.65778 0.79224 0.70139 -0.35839 -0.47129 -1.1896 0.71492 -0.36267 0.6677 -1.8545 0.60445 1.395 -0.22698 0.70613 -0.8682 -0.60194 -0.73024 -0.37363 1.1927 -0.70733 0.4199 0.062692 0.99876 0.38419 0.596 -0.37931 -1.2886 0.39525 -0.081027 -0.35287 0.12033 0.62091 -1.1058 -0.23596 0.72795 0.44068 0.45852 -0.54324
rhinos -0.10755 -0.60541 -0.2963 -0.11034 -0.2805 0.587 -0.70613 -0.6542 -0.035172 -0.13176 0.26494 -0.24606 0.66541 -0.94673 0.26403 0.45135 1.1318 0.61121 -1.6055 0.87787 -1.6802 -0.36561 0.30708 0.19806 -0.61795 -0.050184 0.75041 -0.0083834 -0.80198 -1.2177 0.044822 1.0327 0.31406 -0.059283 0.95876 0.74835 0.30753 -1.143 -0.054483 -1.1872 -1.2546 -0.58352 -0.014341 0.39294 0.79836 0.91337 -0.059208 0.24375 -0.21965 -1.3656
downloadable -0.26564 -0.27946 0.54622 0.67277 -0.55207 -0.16626 -0.9048 -1.1242 0.66561 1.7212 -0.042808 0.48996 0.587 -0.41559 0.74386 -0.0071485 -0.15696 0.22874 0.50665 -0.13896 0.54978 -0.28202 0.6766 1.1439 -0.20936 1.1265 0.2897 -0.12346 0.28842 -0.94898 1.7067 -0.52002 -0.27281 0.20599 0.35025 1.1239 0.7558 -0.58578 -1.7583 -1.6167 1.6574 -0.82752 -1.2646 0.42458 -0.227 -0.094432 0.79389 0.30559 -0.30896 -0.37484
storytelling -0.11713 -0.23841 -1.4231 0.36695 0.2286 0.22301 0.48655 -0.73756 0.22402 1.5052 -0.43441 -0.027451 0.23946 0.3245 -0.45395 -0.30263 0.25062 0.5453 0.095923 -0.20322 0.62277 0.96176 -0.24279 0.30775 1.207 0.046244 -1.3623 -0.32756 0.49423 -0.51728 1.5847 -0.064045 0.029382 -0.55493 -0.088662 0.76944 -0.78929 0.65992 -0.7887 -0.12339 0.38105 0.32219 -0.9396 0.49739 -0.43984 0.38369 1.3367 0.14024 -0.56576 0.43396
ignite 0.0998 -0.68105 0.69735 -0.28773 -0.2427 0.7426 0.31308 0.086099 -0.064186 0.85627 0.036504 -0.71534 -0.38585 0.4657 0.027181 0.8825 0.48692 0.31571 -0.53055 -0.61727 0.51104 -0.61972 -0.29272 0.13017 0.067617 -0.92432 0.09965 0.16778 1.6471 0.52694 0.49617 0.7082 -1.0325 -0.70237 -0.35886 0.58149 -0.97529 -0.84731 0.33038 -0.088233 -0.26271 0.023196 -0.67644 -0.34634 1.17 1.0634 0.9082 0.47074 -0.079995 -0.89467
alarms 0.37701 -1.0956 1.2836 -0.43517 -0.68457 -0.28972 0.44677 0.10796 -0.066698 0.39514 -0.41632 -0.53509 0.38729 0.68586 0.023747 0.47893 -0.94504 0.046906 -0.52452 -1.3259 0.79571 0.23296 -0.60851 -0.22279 0.75348 -0.93595 -0.037327 0.48299 0.56533 -0.46384 0.62344 0.2207 0.43307 -1.4005 -0.075467 0.3563 1.1416 -1.4514 0.1157 0.34154 -0.24484 0.20929 0.31209 1.2583 0.9448 0.72703 0.31889 0.54025 0.28564 -0.42199
violinist -0.88207 1.1685 -1.2579 -0.59654 0.34619 0.83851 -0.27374 0.74487 -1.5868 1.3329 1.3787 0.097494 0.29165 1.0896 0.05931 -0.55152 0.14031 0.77071 -0.28925 -0.038719 0.40886 1.0918 -1.013 0.31988 0.6947 0.074875 0.014929 -1.1434 -1.0066 0.015428 0.29421 -0.5368 0.45907 0.25371 0.87537 -0.19068 1.0688 0.91895 0.10242 0.50742 0.37506 0.3774 -0.066469 -1.098 1.2557 -0.69383 -0.23224 -0.86017 -1.3628 1.1574
mindful 0.24055 -0.28413 -0.13468 -0.63472 0.35623 -0.48916 0.42346 0.48615 -0.15936 -0.05283 -0.37904 0.0084395 -0.1534 0.045481 0.32064 0.42032 0.27164 -0.013318 0.56322 -0.45616 -0.46625 0.15818 -0.028347 -0.17875 0.87229 -0.66897 -0.53267 0.2926 0.53217 0.65714 0.31618 0.97434 0.35103 -1.1207 -0.40859 -0.30892 -0.38677 0.085156 -0.60342 -0.25108 -0.93454 -0.42117 0.035802 0.78005 0.26924 0.48954 -0.4567 0.90217 0.029034 0.27723
vegetarian 0.023177 -0.35125 -2.0004 -0.80865 0.93863 0.11254 -0.75016 -1.0483 0.78333 0.88214 -0.2883 0.049715 1.5489 1.0032 0.69109 -0.16105 0.097261 0.37137 0.70397 0.36433 0.15654 0.34248 0.77903 1.7287 -0.013433 0.081862 -0.18517 -0.16547 0.29697 0.51072 1.1265 -0.11064 -0.61276 1.4407 -0.028214 -0.12467 -0.0015151 1.1987 -0.091864 0.35275 0.33016 0.043968 -0.18407 1.2409 0.86779 0.94714 -0.74817 -0.027573 0.3636 1.0452
stealth 1.1491 -0.68727 0.90922 -0.042791 -0.1775 0.00049874 0.32823 -0.84843 0.060819 1.1027 0.098053 0.038505 0.2498 1.3541 -1.2053 -1.0038 -0.66351 0.84882 -1.1584 -0.10664 -0.76452 -0.14529 -0.71758 -0.79089 -0.54285 -1.0744 -0.51229 -0.25168 1.1496 -0.63827 0.46987 0.33758 -1.0878 -0.24568 0.87079 0.063687 0.0075621 0.014066 -1.5988 -0.30946 0.12186 -0.13492 1.1644 -0.49139 0.022737 0.097448 0.29513 0.57808 -0.48468 1.0933
gadgets -0.32519 -0.14833 1.2463 0.38256 -0.33359 -0.58416 -0.41925 -1.511 -0.078289 0.85169 -0.68953 0.48504 -0.066505 0.51456 -0.036239 0.76263 -0.89453 0.51814 0.52709 -0.72972 0.92403 0.38305 -0.30587 0.30471 0.40128 -0.32139 -1.0185 -0.54444 1.5631 -0.43315 0.81275 0.75173 0.38218 -0.32458 0.72697 1.2298 -0.59146 0.38879 -0.63216 -0.15171 0.50804 0.59222 0.22677 0.88555 1.244 1.0412 0.86915 0.030627 -0.40244 0.27316
snowfall -0.19511 1.0608 -0.0033895 -0.18525 -1.5901 0.030763 0.058144 1.0318 1.0103 -0.086402 -0.040624 -1.714 1.2872 -0.52276 0.83202 0.40226 -0.16972 -0.38862 -1.4925 -0.54966 -0.092836 -0.88416 0.78093 -0.6017 0.66478 0.61265 -0.57719 1.5085 1.309 1.3054 1.4808 0.60613 1.2099 0.22722 0.19188 0.28079 0.52074 0.25095 -0.042237 0.69537 -1.0471 0.8112 0.060101 -0.62317 -0.41518 -0.28927 0.30839 0.38953 -0.14415 -0.19376
haunt 0.6662 0.21595 -0.22337 -0.35028 -0.16627 -0.7622 -0.62799 0.85542 -0.41763 0.15642 -0.85129 0.46289 -0.19117 0.01452 1.1108 0.46238 0.15133 -0.3021 0.28226 0.3206 -0.090771 -0.13621 -0.13583 0.78794 0.39907 -0.78637 -1.0826 -0.19352 1.0833 0.15319 0.1729 0.78531 -0.085407 -0.34901 -0.18905 0.487 -0.92514 -0.47103 -0.28068 -0.85398 -0.75843 -0.03955 -0.12218 0.22154 0.4465 0.65209 0.058338 -0.57143 0.26585 -0.56446
planetary 0.89931 0.76976 0.28669 0.54337 0.084923 0.35571 0.13703 -0.74275 0.30411 -0.27707 0.82226 0.55384 0.37586 2.1469 -0.68329 0.23631 0.14634 0.35317 -0.99482 -0.2656 -0.68306 -0.093104 -0.025075 -0.60028 0.38201 0.11264 -0.77961 -0.37403 -0.36489 0.55012 0.60304 -0.65232 -0.80532 -1.8587 -0.098132 0.29931 -0.71178 -0.079179 0.89218 0.43519 -0.64465 -0.058167 0.19983 1.2037 -0.97305 -0.21958 1.5694 0.26103 -0.40988 -0.18498
exhaustion 0.13681 0.31108 -0.29353 -0.79589 -0.8418 0.26345 1.1855 1.5833 0.36488 0.38733 0.40608 -0.5048 -0.34217 -0.71103 0.48919 -0.062037 -0.72997 -0.30188 -0.3347 -0.40078 -0.7435 0.87287 0.42005 -0.80612 0.72548 -0.3808 -0.33462 0.21952 0.96424 1.5756 1.1105 0.50801 0.3246 -0.45583 -0.39868 0.32854 0.34477 0.00093406 1.4196 0.13114 -0.18132 -0.42083 -0.13096 1.0924 0.66537 -0.076832 0.32417 -0.17267 -0.10035 -0.50658
instincts -0.37779 -1.0139 -0.71739 -0.48495 1.0538 0.57528 0.19028 -0.027486 0.60466 0.58829 0.24568 0.94544 -0.070067 0.55113 -1.1968 -0.24203 0.48445 -0.073143 -0.096979 -0.02496 -0.98764 0.83377 0.32748 -0.34192 0.84118 -0.88678 -0.86795 -0.59957 0.87139 0.18801 1.0515 1.2673 0.033834 -0.33136 -0.414 0.36234 -1.2358 0.31518 -0.12295 -0.56334 -0.10167 -0.17923 -0.8524 1.3569 0.51021 -0.19008 0.37933 0.23076 0.36591 0.45653
clocks -0.38672 -0.38823 0.70464 -0.2701 0.68857 -0.28678 0.12684 -0.81599 0.26704 0.34059 0.80094 0.20778 -0.005712 1.6006 0.23195 1.209 -0.67092 -0.31089 -0.80035 -1.0856 1.3153 -0.25271 -0.45775 -0.41797 1.442 0.11253 -0.88565 -0.23301 1.0183 -0.29048 0.60646 0.028251 0.25709 -0.016319 0.093689 0.23186 0.99834 0.5807 -0.24935 1.423 -0.085744 -0.0084315 -0.080715 0.85089 0.25883 0.72917 1.1478 -0.44491 -0.64197 -0.98994
prowess -0.90144 0.017375 -0.62431 0.2223 0.15253 -0.25955 0.38743 -0.26289 0.34701 1.0442 0.038845 0.17759 -0.73093 -0.51915 -0.82456 -0.72316 0.17669 0.7711 -0.44656 -0.28946 -0.21241 0.39981 -0.63855 -1.2154 0.14216 -0.78541 -0.5451 -0.49847 0.42655 0.11304 1.1862 0.95338 0.43794 -0.89781 0.0597 0.9176 -1.1007 0.95399 -0.83514 -0.48186 -0.00024017 -0.27437 -0.6516 0.69526 0.49018 -0.82258 0.69595 0.46584 -0.39992 -0.17711
racers -0.67817 0.091455 0.38163 0.054927 -1.0732 0.065144 -0.77611 0.34944 0.12266 -0.29791 0.34148 -0.67586 -0.57199 0.46843 0.21334 -0.18198 0.57238 0.77959 -1.2555 -1.7358 -0.27908 -0.089251 -0.21497 1.1499 0.48107 -0.1283 -0.64902 -0.37979 0.061507 -0.11957 0.67932 0.979 -0.13633 0.34598 0.97282 -0.29473 0.18842 0.41446 -0.45255 -0.13068 -0.49251 -0.58678 0.62962 0.83359 0.39889 -0.45489 0.46402 -0.5304 0.43653 -0.38861
bearded -0.33364 0.31889 0.05219 -1.1236 1.9431 -0.26025 -0.26182 -0.67239 -0.77059 -0.078524 0.16243 -0.46028 0.46721 1.1315 -0.3039 -0.027735 -0.31712 0.39781 -0.2685 0.40788 -1.7827 0.69815 0.17255 0.075914 -0.54187 -1.0936 -0.61078 0.7796 -0.64278 0.22273 0.12479 -0.48929 -0.06419 0.70404 0.36145 0.54119 -0.50785 -0.29462 -0.37316 -0.55139 0.020035 0.75063 -0.45592 0.34093 1.6208 -0.9525 -0.059298 -0.66322 -0.29647 -0.85422
twists 0.88714 0.22219 -0.68529 0.30181 0.10811 1.1584 0.84256 0.29055 -0.40222 0.5891 -1.5215 -0.17336 -0.71988 0.74439 0.23534 -0.57914 -0.0063994 -0.067867 -0.29528 -0.83925 0.43269 0.15642 0.34524 0.37298 0.85902 -0.20604 -0.89861 0.90637 1.0632 -0.31675 1.0631 0.20208 0.52885 0.42246 0.64078 0.24894 -1.0322 0.54605 -0.40984 -0.23317 -0.34963 0.46975 -0.13454 0.48543 -0.28951 0.083223 1.7647 0.36758 0.08962 -0.2056
geometric 0.65792 0.50255 -0.94615 0.13917 0.93209 0.86206 0.95685 -2.2605 -1.265 0.31642 0.22832 -0.28323 -0.39328 -0.073462 -0.44241 -0.36091 0.062305 -0.55846 0.217 -1.5606 -0.26465 -0.81768 -0.76092 -0.48492 -0.10948 1.1988 -1.383 0.63932 0.47118 -0.32939 1.7415 -1.0564 0.055087 -0.73588 0.090131 0.24646 -0.078243 0.87405 -0.57876 1.2058 0.48526 -0.2905 0.1012 0.99193 -0.28787 -0.923 1.661 0.0061199 0.25672 -0.54633
